{"learner":{"attributes":{"scikit_learn":"{\"_estimator_type\": \"regressor\"}"},"feature_names":[],"feature_types":[],"gradient_booster":{"model":{"gbtree_model_param":{"num_parallel_tree":"1","num_trees":"100"},"iteration_indptr":[0,1,2,3,4,5,6,7,8,9,10,11,12,13,14,15,16,17,18,19,20,21,22,23,24,25,26,27,28,29,30,31,32,33,34,35,36,37,38,39,40,41,42,43,44,45,46,47,48,49,50,51,52,53,54,55,56,57,58,59,60,61,62,63,64,65,66,67,68,69,70,71,72,73,74,75,76,77,78,79,80,81,82,83,84,85,86,87,88,89,90,91,92,93,94,95,96,97,98,99,100],"tree_info":[0,0,0,0,0,0,0,0,0,0,0,0,0,0,0,0,0,0,0,0,0,0,0,0,0,0,0,0,0,0,0,0,0,0,0,0,0,0,0,0,0,0,0,0,0,0,0,0,0,0,0,0,0,0,0,0,0,0,0,0,0,0,0,0,0,0,0,0,0,0,0,0,0,0,0,0,0,0,0,0,0,0,0,0,0,0,0,0,0,0,0,0,0,0,0,0,0,0,0,0],"trees":[{"base_weights":[8.19052E-8,-1.8298593E0,2.462139E0,-2.6009166E0,-6.735383E-1,1.3865131E0,3.6708302E0,-2.9848346E-1,-2.1092282E-1,-1.1108028E-1,-1.9294174E-2,9.317122E-2,1.9773239E-1,3.097927E-1,4.3278867E-1],"categories":[],"categories_nodes":[],"categories_segments":[],"categories_sizes":[],"default_left":[0,0,0,0,0,0,0,0,0,0,0,0,0,0,0],"id":0,"left_children":[1,3,5,7,9,11,13,-1,-1,-1,-1,-1,-1,-1,-1],"loss_changes":[3.6087993E3,4.0880957E2,4.414392E2,4.8857788E1,3.8665123E1,4.7848145E1,5.3713135E1,0E0,0E0,0E0,0E0,0E0,0E0,0E0,0E0],"parents":[2147483647,0,0,1,1,2,2,3,3,4,4,5,5,6,6],"right_children":[2,4,6,8,10,12,14,-1,-1,-1,-1,-1,-1,-1,-1],"split_conditions":[2.84208E5,1.63796E5,3.92786E5,9.682E4,2.28389E5,3.41001E5,4.45538E5,-2.9848346E-1,-2.1092282E-1,-1.1108028E-1,-1.9294174E-2,9.317122E-2,1.9773239E-1,3.097927E-1,4.3278867E-1],"split_indices":[0,0,0,0,0,0,0,0,0,0,0,0,0,0,0],"split_type":[0,0,0,0,0,0,0,0,0,0,0,0,0,0,0],"sum_hessian":[8E2,4.59E2,3.41E2,2.75E2,1.84E2,1.81E2,1.6E2,1.53E2,1.22E2,9.6E1,8.8E1,1.03E2,7.8E1,8.7E1,7.3E1],"tree_param":{"num_deleted":"0","num_feature":"1","num_nodes":"15","size_leaf_vector":"1"}},{"base_weights":[2.4594791E-4,-1.6775103E0,2.178681E0,-2.323718E0,-6.119346E-1,1.1724355E0,3.2625268E0,-2.7218437E-1,-1.9144893E-1,-9.52441E-2,-1.9278845E-2,6.902318E-2,1.6225833E-1,2.663331E-1,3.8082287E-1],"categories":[],"categories_nodes":[],"categories_segments":[],"categories_sizes":[],"default_left":[0,0,0,0,0,0,0,0,0,0,0,0,0,0,0],"id":1,"left_children":[1,3,5,7,9,11,13,-1,-1,-1,-1,-1,-1,-1,-1],"loss_changes":[2.927561E3,3.1087292E2,3.7816675E2,4.3257812E1,2.438501E1,3.8836945E1,4.969812E1,0E0,0E0,0E0,0E0,0E0,0E0,0E0,0E0],"parents":[2147483647,0,0,1,1,2,2,3,3,4,4,5,5,6,6],"right_children":[2,4,6,8,10,12,14,-1,-1,-1,-1,-1,-1,-1,-1],"split_conditions":[2.78744E5,1.69285E5,3.86745E5,8.8607E4,2.31776E5,3.31777E5,4.3919E5,-2.7218437E-1,-1.9144893E-1,-9.52441E-2,-1.9278845E-2,6.902318E-2,1.6225833E-1,2.663331E-1,3.8082287E-1],"split_indices":[0,0,0,0,0,0,0,0,0,0,0,0,0,0,0],"split_type":[0,0,0,0,0,0,0,0,0,0,0,0,0,0,0],"sum_hessian":[8E2,4.52E2,3.48E2,2.81E2,1.71E2,1.81E2,1.67E2,1.41E2,1.4E2,9.4E1,7.7E1,8.8E1,9.3E1,8.1E1,8.6E1],"tree_param":{"num_deleted":"0","num_feature":"1","num_nodes":"15","size_leaf_vector":"1"}},{"base_weights":[4.089303E-4,-1.4402034E0,2.061861E0,-2.0567815E0,-4.1314796E-1,1.2706976E0,3.0956311E0,-2.3755959E-1,-1.5799588E-1,-6.890293E-2,6.3847923E-3,8.86413E-2,1.7986444E-1,2.6861444E-1,3.613117E-1],"categories":[],"categories_nodes":[],"categories_segments":[],"categories_sizes":[],"default_left":[0,0,0,0,0,0,0,0,0,0,0,0,0,0,0],"id":2,"left_children":[1,3,5,7,9,11,13,-1,-1,-1,-1,-1,-1,-1,-1],"loss_changes":[2.3787722E3,2.981573E2,2.6752502E2,4.28927E1,2.3379982E1,3.7243164E1,2.534375E1,0E0,0E0,0E0,0E0,0E0,0E0,0E0,0E0],"parents":[2147483647,0,0,1,1,2,2,3,3,4,4,5,5,6,6],"right_children":[2,4,6,8,10,12,14,-1,-1,-1,-1,-1,-1,-1,-1],"split_conditions":[2.89764E5,1.78383E5,4.03004E5,1.08524E5,2.48468E5,3.5508E5,4.56865E5,-2.3755959E-1,-1.5799588E-1,-6.890293E-2,6.3847923E-3,8.86413E-2,1.7986444E-1,2.6861444E-1,3.613117E-1],"split_indices":[0,0,0,0,0,0,0,0,0,0,0,0,0,0,0],"split_type":[0,0,0,0,0,0,0,0,0,0,0,0,0,0,0],"sum_hessian":[8E2,4.71E2,3.29E2,2.94E2,1.77E2,1.87E2,1.42E2,1.75E2,1.19E2,1.12E2,6.5E1,1.09E2,7.8E1,8.1E1,6.1E1],"tree_param":{"num_deleted":"0","num_feature":"1","num_nodes":"15","size_leaf_vector":"1"}},{"base_weights":[6.430782E-4,-1.3927834E0,1.7292705E0,-1.9531343E0,-6.2250924E-1,8.4077185E-1,2.578952E0,-2.2850941E-1,-1.6709286E-1,-1.0068937E-1,-3.0568093E-2,4.0167764E-2,1.1442883E-1,2.0276237E-1,3.038828E-1],"categories":[],"categories_nodes":[],"categories_segments":[],"categories_sizes":[],"default_left":[0,0,0,0,0,0,0,0,0,0,0,0,0,0,0],"id":3,"left_children":[1,3,5,7,9,11,13,-1,-1,-1,-1,-1,-1,-1,-1],"loss_changes":[1.9293807E3,1.908172E2,2.6880737E2,2.2120056E1,2.268058E1,2.315947E1,4.3190674E1,0E0,0E0,0E0,0E0,0E0,0E0,0E0,0E0],"parents":[2147483647,0,0,1,1,2,2,3,3,4,4,5,5,6,6],"right_children":[2,4,6,8,10,12,14,-1,-1,-1,-1,-1,-1,-1,-1],"split_conditions":[2.72591E5,1.49826E5,3.77852E5,7.2071E4,2.11014E5,3.19772E5,4.31366E5,-2.2850941E-1,-1.6709286E-1,-1.0068937E-1,-3.0568093E-2,4.0167764E-2,1.1442883E-1,2.0276237E-1,3.038828E-1],"split_indices":[0,0,0,0,0,0,0,0,0,0,0,0,0,0,0],"split_type":[0,0,0,0,0,0,0,0,0,0,0,0,0,0,0],"sum_hessian":[8E2,4.43E2,3.57E2,2.56E2,1.87E2,1.75E2,1.82E2,1.16E2,1.4E2,8.4E1,1.03E2,7.2E1,1.03E2,8.4E1,9.8E1],"tree_param":{"num_deleted":"0","num_feature":"1","num_nodes":"15","size_leaf_vector":"1"}},{"base_weights":[6.627575E-4,-1.1597432E0,1.687071E0,-1.6565652E0,-3.0086127E-1,1.0784167E0,2.5741632E0,-1.908742E-1,-1.22666635E-1,-5.7464458E-2,1.507948E-3,7.367027E-2,1.509744E-1,2.2975841E-1,3.0777588E-1],"categories":[],"categories_nodes":[],"categories_segments":[],"categories_sizes":[],"default_left":[0,0,0,0,0,0,0,0,0,0,0,0,0,0,0],"id":4,"left_children":[1,3,5,7,9,11,13,-1,-1,-1,-1,-1,-1,-1,-1],"loss_changes":[1.5674912E3,2.0222534E2,1.748999E2,3.1406677E1,1.5098461E1,2.8111359E1,1.4919434E1,0E0,0E0,0E0,0E0,0E0,0E0,0E0,0E0],"parents":[2147483647,0,0,1,1,2,2,3,3,4,4,5,5,6,6],"right_children":[2,4,6,8,10,12,14,-1,-1,-1,-1,-1,-1,-1,-1],"split_conditions":[2.96719E5,1.82492E5,4.10054E5,1.15928E5,2.41349E5,3.59068E5,4.66532E5,-1.908742E-1,-1.22666635E-1,-5.7464458E-2,1.507948E-3,7.367027E-2,1.509744E-1,2.2975841E-1,3.0777588E-1],"split_indices":[0,0,0,0,0,0,0,0,0,0,0,0,0,0,0],"split_type":[0,0,0,0,0,0,0,0,0,0,0,0,0,0,0],"sum_hessian":[8E2,4.74E2,3.26E2,3E2,1.74E2,1.94E2,1.32E2,1.88E2,1.12E2,9.3E1,8.1E1,1.09E2,8.5E1,8.7E1,4.5E1],"tree_param":{"num_deleted":"0","num_feature":"1","num_nodes":"15","size_leaf_vector":"1"}},{"base_weights":[8.417114E-4,-1.1568993E0,1.3733876E0,-1.62782E0,-5.8767325E-1,6.781441E-1,2.119887E0,-1.9076537E-1,-1.4173679E-1,-9.040368E-2,-3.1310894E-2,3.5180077E-2,1.00780606E-1,1.7574815E-1,2.5821334E-1],"categories":[],"categories_nodes":[],"categories_segments":[],"categories_sizes":[],"default_left":[0,0,0,0,0,0,0,0,0,0,0,0,0,0,0],"id":5,"left_children":[1,3,5,7,9,11,13,-1,-1,-1,-1,-1,-1,-1,-1],"loss_changes":[1.2728309E3,1.159939E2,1.8949432E2,1.2634827E1,1.701374E1,2.0317299E1,2.729834E1,0E0,0E0,0E0,0E0,0E0,0E0,0E0,0E0],"parents":[2147483647,0,0,1,1,2,2,3,3,4,4,5,5,6,6],"right_children":[2,4,6,8,10,12,14,-1,-1,-1,-1,-1,-1,-1,-1],"split_conditions":[2.66923E5,1.40728E5,3.8241E5,5.939E4,2.05871E5,3.26019E5,4.41821E5,-1.9076537E-1,-1.4173679E-1,-9.040368E-2,-3.1310894E-2,3.5180077E-2,1.00780606E-1,1.7574815E-1,2.5821334E-1],"split_indices":[0,0,0,0,0,0,0,0,0,0,0,0,0,0,0],"split_type":[0,0,0,0,0,0,0,0,0,0,0,0,0,0,0],"sum_hessian":[8E2,4.34E2,3.66E2,2.37E2,1.97E2,1.9E2,1.76E2,1E2,1.37E2,9.1E1,1.06E2,9.6E1,9.4E1,1E2,7.6E1],"tree_param":{"num_deleted":"0","num_feature":"1","num_nodes":"15","size_leaf_vector":"1"}},{"base_weights":[8.297753E-4,-9.1806185E-1,1.407473E0,-1.3390969E0,-2.1148787E-1,9.261613E-1,2.1267312E0,-1.5928744E-1,-1.0390105E-1,-4.0758453E-2,1.0745623E-2,6.54573E-2,1.2629788E-1,1.913204E-1,2.5728136E-1],"categories":[],"categories_nodes":[],"categories_segments":[],"categories_sizes":[],"default_left":[0,0,0,0,0,0,0,0,0,0,0,0,0,0,0],"id":6,"left_children":[1,3,5,7,9,11,13,-1,-1,-1,-1,-1,-1,-1,-1],"loss_changes":[1.0353345E3,1.4399353E2,1.08583435E2,2.2285522E1,1.137361E1,1.7012772E1,9.588013E0,0E0,0E0,0E0,0E0,0E0,0E0,0E0,0E0],"parents":[2147483647,0,0,1,1,2,2,3,3,4,4,5,5,6,6],"right_children":[2,4,6,8,10,12,14,-1,-1,-1,-1,-1,-1,-1,-1],"split_conditions":[3.01184E5,1.87467E5,4.13979E5,1.01447E5,2.52841E5,3.62542E5,4.72061E5,-1.5928744E-1,-1.0390105E-1,-4.0758453E-2,1.0745623E-2,6.54573E-2,1.2629788E-1,1.913204E-1,2.5728136E-1],"split_indices":[0,0,0,0,0,0,0,0,0,0,0,0,0,0,0],"split_type":[0,0,0,0,0,0,0,0,0,0,0,0,0,0,0],"sum_hessian":[8E2,4.84E2,3.16E2,3.03E2,1.81E2,1.9E2,1.26E2,1.63E2,1.4E2,1.12E2,6.9E1,1.06E2,8.4E1,8.7E1,3.9E1],"tree_param":{"num_deleted":"0","num_feature":"1","num_nodes":"15","size_leaf_vector":"1"}},{"base_weights":[9.6363935E-4,-8.202735E-1,1.2780055E0,-1.2743572E0,-2.76591E-1,8.4427786E-1,1.9158311E0,-1.5388855E-1,-1.0822829E-1,-5.230378E-2,2.5180392E-3,5.450163E-2,1.0845238E-1,1.7324108E-1,2.344369E-1],"categories":[],"categories_nodes":[],"categories_segments":[],"categories_sizes":[],"default_left":[0,0,0,0,0,0,0,0,0,0,0,0,0,0,0],"id":7,"left_children":[1,3,5,7,9,11,13,-1,-1,-1,-1,-1,-1,-1,-1],"loss_changes":[8.400519E2,1.2017648E2,8.59187E1,1.2657074E1,1.6554037E1,1.3185043E1,7.912506E0,0E0,0E0,0E0,0E0,0E0,0E0,0E0,0E0],"parents":[2147483647,0,0,1,1,2,2,3,3,4,4,5,5,6,6],"right_children":[2,4,6,8,10,12,14,-1,-1,-1,-1,-1,-1,-1,-1],"split_conditions":[3.03256E5,1.55993E5,4.13979E5,6.6153E4,2.35274E5,3.50336E5,4.72902E5,-1.5388855E-1,-1.0822829E-1,-5.230378E-2,2.5180392E-3,5.450163E-2,1.0845238E-1,1.7324108E-1,2.344369E-1],"split_indices":[0,0,0,0,0,0,0,0,0,0,0,0,0,0,0],"split_type":[0,0,0,0,0,0,0,0,0,0,0,0,0,0,0],"sum_hessian":[8E2,4.87E2,3.13E2,2.65E2,2.22E2,1.87E2,1.26E2,1.1E2,1.55E2,1.22E2,1E2,8.4E1,1.03E2,9E1,3.6E1],"tree_param":{"num_deleted":"0","num_feature":"1","num_nodes":"15","size_leaf_vector":"1"}},{"base_weights":[1.0288995E-3,-8.402029E-1,1.0135143E0,-1.2055057E0,-4.2864028E-1,5.586753E-1,1.62699E0,-1.4257346E-1,-1.0577925E-1,-6.60182E-2,-2.0813076E-2,2.6953852E-2,8.0677755E-2,1.399261E-1,1.9887395E-1],"categories":[],"categories_nodes":[],"categories_segments":[],"categories_sizes":[],"default_left":[0,0,0,0,0,0,0,0,0,0,0,0,0,0,0],"id":8,"left_children":[1,3,5,7,9,11,13,-1,-1,-1,-1,-1,-1,-1,-1],"loss_changes":[6.822396E2,6.551758E1,1.0097388E2,6.776764E0,1.0474598E1,1.4919853E1,1.1336456E1,0E0,0E0,0E0,0E0,0E0,0E0,0E0,0E0],"parents":[2147483647,0,0,1,1,2,2,3,3,4,4,5,5,6,6],"right_children":[2,4,6,8,10,12,14,-1,-1,-1,-1,-1,-1,-1,-1],"split_conditions":[2.70611E5,1.37451E5,3.96691E5,5.1282E4,2.07534E5,3.28728E5,4.59549E5,-1.4257346E-1,-1.0577925E-1,-6.60182E-2,-2.0813076E-2,2.6953852E-2,8.0677755E-2,1.399261E-1,1.9887395E-1],"split_indices":[0,0,0,0,0,0,0,0,0,0,0,0,0,0,0],"split_type":[0,0,0,0,0,0,0,0,0,0,0,0,0,0,0],"sum_hessian":[8E2,4.37E2,3.63E2,2.31E2,2.06E2,2.09E2,1.54E2,9.1E1,1.4E2,1E2,1.06E2,9.7E1,1.12E2,9.6E1,5.8E1],"tree_param":{"num_deleted":"0","num_feature":"1","num_nodes":"15","size_leaf_vector":"1"}},{"base_weights":[9.954455E-4,-6.5600514E-1,1.0553997E0,-9.7312903E-1,-1.22249976E-1,7.205411E-1,1.593807E0,-1.1331774E-1,-6.878301E-2,-2.8041063E-2,9.31033E-3,5.1588334E-2,9.742191E-2,1.4465256E-1,1.9415197E-1],"categories":[],"categories_nodes":[],"categories_segments":[],"categories_sizes":[],"default_left":[0,0,0,0,0,0,0,0,0,0,0,0,0,0,0],"id":9,"left_children":[1,3,5,7,9,11,13,-1,-1,-1,-1,-1,-1,-1,-1],"loss_changes":[5.548879E2,8.3473526E1,5.486508E1,1.3742584E1,6.297199E0,9.638931E0,4.613159E0,0E0,0E0,0E0,0E0,0E0,0E0,0E0,0E0],"parents":[2147483647,0,0,1,1,2,2,3,3,4,4,5,5,6,6],"right_children":[2,4,6,8,10,12,14,-1,-1,-1,-1,-1,-1,-1,-1],"split_conditions":[3.06204E5,1.91354E5,4.19983E5,1.2001E5,2.52841E5,3.65843E5,4.74135E5,-1.1331774E-1,-6.878301E-2,-2.8041063E-2,9.31033E-3,5.1588334E-2,9.742191E-2,1.4465256E-1,1.9415197E-1],"split_indices":[0,0,0,0,0,0,0,0,0,0,0,0,0,0,0],"split_type":[0,0,0,0,0,0,0,0,0,0,0,0,0,0,0],"sum_hessian":[8E2,4.93E2,3.07E2,3.09E2,1.84E2,1.9E2,1.17E2,1.97E2,1.12E2,1.06E2,7.8E1,1.06E2,8.4E1,8.4E1,3.3E1],"tree_param":{"num_deleted":"0","num_feature":"1","num_nodes":"15","size_leaf_vector":"1"}},{"base_weights":[1.0751563E-3,-5.860613E-1,9.58424E-1,-8.6904603E-1,-9.253672E-2,6.5666986E-1,1.4358681E0,-1.11473046E-1,-7.0491E-2,-2.2840274E-2,9.97282E-3,4.789654E-2,8.848562E-2,1.3098295E-1,1.7739157E-1],"categories":[],"categories_nodes":[],"categories_segments":[],"categories_sizes":[],"default_left":[0,0,0,0,0,0,0,0,0,0,0,0,0,0,0],"id":10,"left_children":[1,3,5,7,9,11,13,-1,-1,-1,-1,-1,-1,-1,-1],"loss_changes":[4.5023746E2,6.9300964E1,4.339807E1,1.2329849E1,4.7525816E0,7.3911667E0,3.8445892E0,0E0,0E0,0E0,0E0,0E0,0E0,0E0,0E0],"parents":[2147483647,0,0,1,1,2,2,3,3,4,4,5,5,6,6],"right_children":[2,4,6,8,10,12,14,-1,-1,-1,-1,-1,-1,-1,-1],"split_conditions":[3.09139E5,1.96241E5,4.19983E5,8.0069E4,2.57205E5,3.68806E5,4.76961E5,-1.11473046E-1,-7.0491E-2,-2.2840274E-2,9.97282E-3,4.789654E-2,8.848562E-2,1.3098295E-1,1.7739157E-1],"split_indices":[0,0,0,0,0,0,0,0,0,0,0,0,0,0,0],"split_type":[0,0,0,0,0,0,0,0,0,0,0,0,0,0,0],"sum_hessian":[8E2,4.96E2,3.04E2,3.15E2,1.81E2,1.87E2,1.17E2,1.25E2,1.9E2,1.06E2,7.5E1,1.06E2,8.1E1,8.7E1,3E1],"tree_param":{"num_deleted":"0","num_feature":"1","num_nodes":"15","size_leaf_vector":"1"}},{"base_weights":[1.123764E-3,-5.7233214E-1,7.967815E-1,-8.6309797E-1,-2.3301427E-1,4.9135515E-1,1.2402552E0,-1.0935922E-1,-7.6148055E-2,-4.099313E-2,-5.0019682E-3,2.9818794E-2,6.959886E-2,1.0793356E-1,1.4953719E-1],"categories":[],"categories_nodes":[],"categories_segments":[],"categories_sizes":[],"default_left":[0,0,0,0,0,0,0,0,0,0,0,0,0,0,0],"id":11,"left_children":[1,3,5,7,9,11,13,-1,-1,-1,-1,-1,-1,-1,-1],"loss_changes":[3.6547586E2,4.582663E1,4.5138306E1,5.450882E0,6.9665318E0,7.7821655E0,4.796753E0,0E0,0E0,0E0,0E0,0E0,0E0,0E0,0E0],"parents":[2147483647,0,0,1,1,2,2,3,3,4,4,5,5,6,6],"right_children":[2,4,6,8,10,12,14,-1,-1,-1,-1,-1,-1,-1,-1],"split_conditions":[2.88039E5,1.46042E5,4.06669E5,4.3882E4,2.19906E5,3.46902E5,4.62649E5,-1.0935922E-1,-7.6148055E-2,-4.099313E-2,-5.0019682E-3,2.9818794E-2,6.959886E-2,1.0793356E-1,1.4953719E-1],"split_indices":[0,0,0,0,0,0,0,0,0,0,0,0,0,0,0],"split_type":[0,0,0,0,0,0,0,0,0,0,0,0,0,0,0],"sum_hessian":[8E2,4.65E2,3.35E2,2.5E2,2.15E2,1.99E2,1.36E2,7.5E1,1.75E2,1.09E2,1.06E2,1.03E2,9.6E1,8.5E1,5.1E1],"tree_param":{"num_deleted":"0","num_feature":"1","num_nodes":"15","size_leaf_vector":"1"}},{"base_weights":[1.0897398E-3,-4.7608656E-1,7.7914387E-1,-7.355809E-1,-1.1884226E-1,5.379176E-1,1.177083E0,-9.3897104E-2,-6.1949056E-2,-2.7502147E-2,3.3495456E-3,3.789672E-2,7.114597E-2,1.0783237E-1,1.4846928E-1],"categories":[],"categories_nodes":[],"categories_segments":[],"categories_sizes":[],"default_left":[0,0,0,0,0,0,0,0,0,0,0,0,0,0,0],"id":12,"left_children":[1,3,5,7,9,11,13,-1,-1,-1,-1,-1,-1,-1,-1],"loss_changes":[2.973863E2,4.5983253E1,2.8913391E1,6.4974976E0,4.989026E0,5.120056E0,2.677948E0,0E0,0E0,0E0,0E0,0E0,0E0,0E0,0E0],"parents":[2147483647,0,0,1,1,2,2,3,3,4,4,5,5,6,6],"right_children":[2,4,6,8,10,12,14,-1,-1,-1,-1,-1,-1,-1,-1],"split_conditions":[3.09139E5,1.75076E5,4.22354E5,6.1799E4,2.39063E5,3.6497E5,4.8314E5,-9.3897104E-2,-6.1949056E-2,-2.7502147E-2,3.3495456E-3,3.789672E-2,7.114597E-2,1.0783237E-1,1.4846928E-1],"split_indices":[0,0,0,0,0,0,0,0,0,0,0,0,0,0,0],"split_type":[0,0,0,0,0,0,0,0,0,0,0,0,0,0,0],"sum_hessian":[8E2,4.96E2,3.04E2,2.87E2,2.09E2,1.9E2,1.14E2,1.03E2,1.84E2,1.03E2,1.06E2,1E2,9E1,8.8E1,2.6E1],"tree_param":{"num_deleted":"0","num_feature":"1","num_nodes":"15","size_leaf_vector":"1"}},{"base_weights":[1.096507E-3,-5.0333464E-1,5.9911776E-1,-7.343616E-1,-2.602515E-1,2.794221E-1,9.2067546E-1,-9.3085945E-2,-6.638733E-2,-3.6910947E-2,-1.0263093E-2,1.09622395E-2,3.952227E-2,7.6250605E-2,1.1665439E-1],"categories":[],"categories_nodes":[],"categories_segments":[],"categories_sizes":[],"default_left":[0,0,0,0,0,0,0,0,0,0,0,0,0,0,0],"id":13,"left_children":[1,3,5,7,9,11,13,-1,-1,-1,-1,-1,-1,-1,-1],"loss_changes":[2.4163002E2,2.4305428E1,3.7547806E1,2.772812E0,3.6271877E0,3.6061459E0,6.652481E0,0E0,0E0,0E0,0E0,0E0,0E0,0E0,0E0],"parents":[2147483647,0,0,1,1,2,2,3,3,4,4,5,5,6,6],"right_children":[2,4,6,8,10,12,14,-1,-1,-1,-1,-1,-1,-1,-1],"split_conditions":[2.66923E5,1.33165E5,3.77852E5,3.5528E4,2.16317E5,3.18315E5,4.50851E5,-9.3085945E-2,-6.638733E-2,-3.6910947E-2,-1.0263093E-2,1.09622395E-2,3.952227E-2,7.6250605E-2,1.1665439E-1],"split_indices":[0,0,0,0,0,0,0,0,0,0,0,0,0,0,0],"split_type":[0,0,0,0,0,0,0,0,0,0,0,0,0,0,0],"sum_hessian":[8E2,4.34E2,3.66E2,2.22E2,2.12E2,1.84E2,1.82E2,5.7E1,1.65E2,1.25E2,8.7E1,7.5E1,1.09E2,1.12E2,7E1],"tree_param":{"num_deleted":"0","num_feature":"1","num_nodes":"15","size_leaf_vector":"1"}},{"base_weights":[1.0098383E-3,-4.5672742E-1,5.355514E-1,-6.6736376E-1,-2.4405394E-1,2.4337128E-1,8.2471293E-1,-8.2747154E-2,-5.9895642E-2,-3.6043134E-2,-1.232525E-2,1.1791708E-2,3.7023775E-2,6.42558E-2,1.0043793E-1],"categories":[],"categories_nodes":[],"categories_segments":[],"categories_sizes":[],"default_left":[0,0,0,0,0,0,0,0,0,0,0,0,0,0,0],"id":14,"left_children":[1,3,5,7,9,11,13,-1,-1,-1,-1,-1,-1,-1,-1],"loss_changes":[1.9598833E2,1.9248367E1,3.1117683E1,2.1234207E0,3.007409E0,2.9146605E0,5.7481995E0,0E0,0E0,0E0,0E0,0E0,0E0,0E0,0E0],"parents":[2147483647,0,0,1,1,2,2,3,3,4,4,5,5,6,6],"right_children":[2,4,6,8,10,12,14,-1,-1,-1,-1,-1,-1,-1,-1],"split_conditions":[2.63155E5,1.30376E5,3.74617E5,3.8056E4,2.02287E5,3.22364E5,4.35146E5,-8.2747154E-2,-5.9895642E-2,-3.6043134E-2,-1.232525E-2,1.1791708E-2,3.7023775E-2,6.42558E-2,1.0043793E-1],"split_indices":[0,0,0,0,0,0,0,0,0,0,0,0,0,0,0],"split_type":[0,0,0,0,0,0,0,0,0,0,0,0,0,0,0],"sum_hessian":[8E2,4.31E2,3.69E2,2.16E2,2.15E2,1.84E2,1.85E2,6.3E1,1.53E2,1.09E2,1.06E2,9.3E1,9.1E1,9.3E1,9.2E1],"tree_param":{"num_deleted":"0","num_feature":"1","num_nodes":"15","size_leaf_vector":"1"}},{"base_weights":[9.229293E-4,-3.4552905E-1,5.7489413E-1,-5.630838E-1,-1.1006868E-1,3.9508688E-1,8.668278E-1,-7.1420245E-2,-4.8742663E-2,-2.5740726E-2,1.2373335E-4,2.766575E-2,5.126701E-2,7.843168E-2,1.1260282E-1],"categories":[],"categories_nodes":[],"categories_segments":[],"categories_sizes":[],"default_left":[0,0,0,0,0,0,0,0,0,0,0,0,0,0,0],"id":15,"left_children":[1,3,5,7,9,11,13,-1,-1,-1,-1,-1,-1,-1,-1],"loss_changes":[1.5928151E2,2.5556156E1,1.5655037E1,2.7928543E0,3.9442794E0,2.540079E0,2.007225E0,0E0,0E0,0E0,0E0,0E0,0E0,0E0,0E0],"parents":[2147483647,0,0,1,1,2,2,3,3,4,4,5,5,6,6],"right_children":[2,4,6,8,10,12,14,-1,-1,-1,-1,-1,-1,-1,-1],"split_conditions":[3.12744E5,1.53433E5,4.22354E5,4.7315E4,2.22068E5,3.64341E5,4.8314E5,-7.1420245E-2,-4.8742663E-2,-2.5740726E-2,1.2373335E-4,2.766575E-2,5.126701E-2,7.843168E-2,1.1260282E-1],"split_indices":[0,0,0,0,0,0,0,0,0,0,0,0,0,0,0],"split_type":[0,0,0,0,0,0,0,0,0,0,0,0,0,0,0],"sum_hessian":[8E2,4.99E2,3.01E2,2.59E2,2.4E2,1.87E2,1.14E2,8.5E1,1.74E2,1.03E2,1.37E2,9.4E1,9.3E1,8.8E1,2.6E1],"tree_param":{"num_deleted":"0","num_feature":"1","num_nodes":"15","size_leaf_vector":"1"}},{"base_weights":[9.082058E-4,-3.743464E-1,4.3257573E-1,-5.496932E-1,-2.0613536E-1,2.3903248E-1,7.2371495E-1,-6.99803E-2,-5.004431E-2,-2.9661974E-2,-1.0873589E-2,1.2516218E-2,3.86714E-2,6.3815914E-2,9.517276E-2],"categories":[],"categories_nodes":[],"categories_segments":[],"categories_sizes":[],"default_left":[0,0,0,0,0,0,0,0,0,0,0,0,0,0,0],"id":16,"left_children":[1,3,5,7,9,11,13,-1,-1,-1,-1,-1,-1,-1,-1],"loss_changes":[1.2975015E2,1.2582069E1,2.0903137E1,1.3737106E0,1.918354E0,3.751113E0,2.5932388E0,0E0,0E0,0E0,0E0,0E0,0E0,0E0,0E0],"parents":[2147483647,0,0,1,1,2,2,3,3,4,4,5,5,6,6],"right_children":[2,4,6,8,10,12,14,-1,-1,-1,-1,-1,-1,-1,-1],"split_conditions":[2.61118E5,1.28296E5,3.99194E5,2.6836E4,2.00217E5,3.38097E5,4.72061E5,-6.99803E-2,-5.004431E-2,-2.9661974E-2,-1.0873589E-2,1.2516218E-2,3.86714E-2,6.3815914E-2,9.517276E-2],"split_indices":[0,0,0,0,0,0,0,0,0,0,0,0,0,0,0],"split_type":[0,0,0,0,0,0,0,0,0,0,0,0,0,0,0],"sum_hessian":[8E2,4.28E2,3.72E2,2.09E2,2.19E2,2.24E2,1.48E2,5E1,1.59E2,1.13E2,1.06E2,1.27E2,9.7E1,1.09E2,3.9E1],"tree_param":{"num_deleted":"0","num_feature":"1","num_nodes":"15","size_leaf_vector":"1"}},{"base_weights":[8.483422E-4,-2.9788855E-1,4.417956E-1,-4.8083845E-1,-1.2974027E-1,2.8670385E-1,6.917956E-1,-6.258295E-2,-4.35269E-2,-2.3411393E-2,-2.4007203E-3,1.6672973E-2,3.7980925E-2,6.2563255E-2,9.221729E-2],"categories":[],"categories_nodes":[],"categories_segments":[],"categories_sizes":[],"default_left":[0,0,0,0,0,0,0,0,0,0,0,0,0,0,0],"id":17,"left_children":[1,3,5,7,9,11,13,-1,-1,-1,-1,-1,-1,-1,-1],"loss_changes":[1.0551343E2,1.4658001E1,1.2443878E1,1.3735352E0,2.7506094E0,2.2079716E0,1.5939789E0,0E0,0E0,0E0,0E0,0E0,0E0,0E0,0E0],"parents":[2147483647,0,0,1,1,2,2,3,3,4,4,5,5,6,6],"right_children":[2,4,6,8,10,12,14,-1,-1,-1,-1,-1,-1,-1,-1],"split_conditions":[2.98253E5,1.34865E5,4.17037E5,2.9604E4,2.1786E5,3.45395E5,4.8314E5,-6.258295E-2,-4.35269E-2,-2.3411393E-2,-2.4007203E-3,1.6672973E-2,3.7980925E-2,6.2563255E-2,9.221729E-2],"split_indices":[0,0,0,0,0,0,0,0,0,0,0,0,0,0,0],"split_type":[0,0,0,0,0,0,0,0,0,0,0,0,0,0,0],"sum_hessian":[8E2,4.77E2,3.23E2,2.28E2,2.49E2,2E2,1.23E2,5.3E1,1.75E2,1.25E2,1.24E2,8.8E1,1.12E2,9.7E1,2.6E1],"tree_param":{"num_deleted":"0","num_feature":"1","num_nodes":"15","size_leaf_vector":"1"}},{"base_weights":[8.118496E-4,-3.0433235E-1,3.51829E-1,-4.4899327E-1,-1.6939011E-1,1.5827958E-1,5.4651684E-1,-5.7380285E-2,-4.104168E-2,-2.4177961E-2,-8.940822E-3,5.7154614E-3,2.2848815E-2,4.492353E-2,7.1325175E-2],"categories":[],"categories_nodes":[],"categories_segments":[],"categories_sizes":[],"default_left":[0,0,0,0,0,0,0,0,0,0,0,0,0,0,0],"id":18,"left_children":[1,3,5,7,9,11,13,-1,-1,-1,-1,-1,-1,-1,-1],"loss_changes":[8.579577E1,8.326668E0,1.3993187E1,8.7649155E-1,1.2774329E0,1.3246903E0,2.8486443E0,0E0,0E0,0E0,0E0,0E0,0E0,0E0,0E0],"parents":[2147483647,0,0,1,1,2,2,3,3,4,4,5,5,6,6],"right_children":[2,4,6,8,10,12,14,-1,-1,-1,-1,-1,-1,-1,-1],"split_conditions":[2.61118E5,1.26038E5,3.74617E5,2.5604E4,2.00217E5,3.16216E5,4.53739E5,-5.7380285E-2,-4.104168E-2,-2.4177961E-2,-8.940822E-3,5.7154614E-3,2.2848815E-2,4.492353E-2,7.1325175E-2],"split_indices":[0,0,0,0,0,0,0,0,0,0,0,0,0,0,0],"split_type":[0,0,0,0,0,0,0,0,0,0,0,0,0,0,0],"sum_hessian":[8E2,4.28E2,3.72E2,2.06E2,2.22E2,1.87E2,1.85E2,4.7E1,1.59E2,1.16E2,1.06E2,7.7E1,1.1E2,1.18E2,6.7E1],"tree_param":{"num_deleted":"0","num_feature":"1","num_nodes":"15","size_leaf_vector":"1"}},{"base_weights":[7.390312E-4,-2.7684885E-1,3.1371564E-1,-4.0433225E-1,-1.5573333E-1,1.73485E-1,5.3575367E-1,-4.9489744E-2,-3.6002796E-2,-2.0669794E-2,-6.8794675E-3,8.382101E-3,2.7833093E-2,4.8340324E-2,7.617159E-2],"categories":[],"categories_nodes":[],"categories_segments":[],"categories_sizes":[],"default_left":[0,0,0,0,0,0,0,0,0,0,0,0,0,0,0],"id":19,"left_children":[1,3,5,7,9,11,13,-1,-1,-1,-1,-1,-1,-1,-1],"loss_changes":[6.958968E1,6.522888E0,1.167643E1,7.3947906E-1,9.6101856E-1,2.1646442E0,1.5370445E0,0E0,0E0,0E0,0E0,0E0,0E0,0E0,0E0],"parents":[2147483647,0,0,1,1,2,2,3,3,4,4,5,5,6,6],"right_children":[2,4,6,8,10,12,14,-1,-1,-1,-1,-1,-1,-1,-1],"split_conditions":[2.58975E5,1.26038E5,4.01262E5,3.8902E4,2.13318E5,3.35255E5,4.8314E5,-4.9489744E-2,-3.6002796E-2,-2.0669794E-2,-6.8794675E-3,8.382101E-3,2.7833093E-2,4.8340324E-2,7.617159E-2],"split_indices":[0,0,0,0,0,0,0,0,0,0,0,0,0,0,0],"split_type":[0,0,0,0,0,0,0,0,0,0,0,0,0,0,0],"sum_hessian":[8E2,4.24E2,3.76E2,2.06E2,2.18E2,2.31E2,1.45E2,6.6E1,1.4E2,1.37E2,8.1E1,1.25E2,1.06E2,1.19E2,2.6E1],"tree_param":{"num_deleted":"0","num_feature":"1","num_nodes":"15","size_leaf_vector":"1"}},{"base_weights":[6.949234E-4,-2.0440556E-1,3.4596342E-1,-3.3886302E-1,-6.738284E-2,2.3675346E-1,5.2806103E-1,-4.096978E-2,-2.715878E-2,-1.3262229E-2,2.6827005E-3,1.7542562E-2,3.104701E-2,4.7932487E-2,7.003642E-2],"categories":[],"categories_nodes":[],"categories_segments":[],"categories_sizes":[],"default_left":[0,0,0,0,0,0,0,0,0,0,0,0,0,0,0],"id":20,"left_children":[1,3,5,7,9,11,13,-1,-1,-1,-1,-1,-1,-1,-1],"loss_changes":[5.672256E1,9.246504E0,5.873726E0,1.152401E0,1.5352556E0,8.204336E-1,7.684593E-1,0E0,0E0,0E0,0E0,0E0,0E0,0E0,0E0],"parents":[2147483647,0,0,1,1,2,2,3,3,4,4,5,5,6,6],"right_children":[2,4,6,8,10,12,14,-1,-1,-1,-1,-1,-1,-1,-1],"split_conditions":[3.13737E5,1.47336E5,4.25641E5,7.737E4,2.43915E5,3.69287E5,4.85526E5,-4.096978E-2,-2.715878E-2,-1.3262229E-2,2.6827005E-3,1.7542562E-2,3.104701E-2,4.7932487E-2,7.003642E-2],"split_indices":[0,0,0,0,0,0,0,0,0,0,0,0,0,0,0],"split_type":[0,0,0,0,0,0,0,0,0,0,0,0,0,0,0],"sum_hessian":[8E2,5.02E2,2.98E2,2.53E2,2.49E2,1.87E2,1.11E2,1.22E2,1.31E2,1.47E2,1.02E2,1.03E2,8.4E1,8.8E1,2.3E1],"tree_param":{"num_deleted":"0","num_feature":"1","num_nodes":"15","size_leaf_vector":"1"}},{"base_weights":[6.8033417E-4,-1.8404332E-1,3.1164613E-1,-2.820719E-1,-3.0670397E-2,2.1585073E-1,4.808461E-1,-3.6230285E-2,-2.1786004E-2,-8.57821E-3,3.0499627E-3,1.4529714E-2,2.7147895E-2,4.392884E-2,6.464987E-2],"categories":[],"categories_nodes":[],"categories_segments":[],"categories_sizes":[],"default_left":[0,0,0,0,0,0,0,0,0,0,0,0,0,0,0],"id":21,"left_children":[1,3,5,7,9,11,13,-1,-1,-1,-1,-1,-1,-1,-1],"loss_changes":[4.6011593E1,7.550726E0,4.7863655E0,1.5395565E0,6.637459E-1,7.318716E-1,5.9804535E-1,0E0,0E0,0E0,0E0,0E0,0E0,0E0,0E0],"parents":[2147483647,0,0,1,1,2,2,3,3,4,4,5,5,6,6],"right_children":[2,4,6,8,10,12,14,-1,-1,-1,-1,-1,-1,-1,-1],"split_conditions":[3.13737E5,1.90104E5,4.27265E5,8.3144E4,2.50248E5,3.62017E5,4.87074E5,-3.6230285E-2,-2.1786004E-2,-8.57821E-3,3.0499627E-3,1.4529714E-2,2.7147895E-2,4.392884E-2,6.464987E-2],"split_indices":[0,0,0,0,0,0,0,0,0,0,0,0,0,0,0],"split_type":[0,0,0,0,0,0,0,0,0,0,0,0,0,0,0],"sum_hessian":[8E2,5.02E2,2.98E2,3.06E2,1.96E2,1.91E2,1.07E2,1.35E2,1.71E2,1.03E2,9.3E1,8.5E1,1.06E2,8.7E1,2E1],"tree_param":{"num_deleted":"0","num_feature":"1","num_nodes":"15","size_leaf_vector":"1"}},{"base_weights":[6.665153E-4,-1.7113627E-1,2.7206406E-1,-2.8130195E-1,-6.416001E-2,1.8370613E-1,4.2893735E-1,-3.965889E-2,-2.5461376E-2,-1.2960314E-2,-2.0322374E-4,1.1181331E-2,2.3550779E-2,3.8517788E-2,5.6203045E-2],"categories":[],"categories_nodes":[],"categories_segments":[],"categories_sizes":[],"default_left":[0,0,0,0,0,0,0,0,0,0,0,0,0,0,0],"id":22,"left_children":[1,3,5,7,9,11,13,-1,-1,-1,-1,-1,-1,-1,-1],"loss_changes":[3.734808E1,5.771575E0,4.2644424E0,6.925583E-1,1.0142943E0,7.29805E-1,5.411453E-1,0E0,0E0,0E0,0E0,0E0,0E0,0E0,0E0],"parents":[2147483647,0,0,1,1,2,2,3,3,4,4,5,5,6,6],"right_children":[2,4,6,8,10,12,14,-1,-1,-1,-1,-1,-1,-1,-1],"split_conditions":[3.04633E5,1.42675E5,4.25641E5,2.2103E4,2.22068E5,3.52104E5,4.8314E5,-3.965889E-2,-2.5461376E-2,-1.2960314E-2,-2.0322374E-4,1.1181331E-2,2.3550779E-2,3.8517788E-2,5.6203045E-2],"split_indices":[0,0,0,0,0,0,0,0,0,0,0,0,0,0,0],"split_type":[0,0,0,0,0,0,0,0,0,0,0,0,0,0,0],"sum_hessian":[8E2,4.9E2,3.1E2,2.41E2,2.49E2,1.99E2,1.11E2,4.4E1,1.97E2,1.21E2,1.28E2,8.4E1,1.15E2,8.5E1,2.6E1],"tree_param":{"num_deleted":"0","num_feature":"1","num_nodes":"15","size_leaf_vector":"1"}},{"base_weights":[6.3175627E-4,-1.7567438E-1,2.1606182E-1,-2.7069443E-1,-9.3887374E-2,1.2988919E-1,3.6927366E-1,-3.6657084E-2,-2.4757303E-2,-1.3469294E-2,-3.4604028E-3,6.41917E-3,1.944653E-2,3.0891303E-2,4.576945E-2],"categories":[],"categories_nodes":[],"categories_segments":[],"categories_sizes":[],"default_left":[0,0,0,0,0,0,0,0,0,0,0,0,0,0,0],"id":23,"left_children":[1,3,5,7,9,11,13,-1,-1,-1,-1,-1,-1,-1,-1],"loss_changes":[3.0423285E1,3.4105968E0,4.7355804E0,4.057417E-1,5.7220364E-1,9.758942E-1,6.204643E-1,0E0,0E0,0E0,0E0,0E0,0E0,0E0,0E0],"parents":[2147483647,0,0,1,1,2,2,3,3,4,4,5,5,6,6],"right_children":[2,4,6,8,10,12,14,-1,-1,-1,-1,-1,-1,-1,-1],"split_conditions":[2.71801E5,1.24809E5,4.10723E5,2.0229E4,2.13318E5,3.38097E5,4.62649E5,-3.6657084E-2,-2.4757303E-2,-1.3469294E-2,-3.4604028E-3,6.41917E-3,1.944653E-2,3.0891303E-2,4.576945E-2],"split_indices":[0,0,0,0,0,0,0,0,0,0,0,0,0,0,0],"split_type":[0,0,0,0,0,0,0,0,0,0,0,0,0,0,0],"sum_hessian":[8E2,4.4E2,3.6E2,2.03E2,2.37E2,2.31E2,1.29E2,3.8E1,1.65E2,1.4E2,9.7E1,1.15E2,1.16E2,7.8E1,5.1E1],"tree_param":{"num_deleted":"0","num_feature":"1","num_nodes":"15","size_leaf_vector":"1"}},{"base_weights":[5.837112E-4,-1.3373637E-1,2.303587E-1,-2.0420147E-1,-1.6683329E-2,1.6239794E-1,3.5945418E-1,-2.5614897E-2,-1.4340145E-2,-5.796009E-3,2.38244E-3,1.1752493E-2,2.1548016E-2,3.28311E-2,4.995614E-2],"categories":[],"categories_nodes":[],"categories_segments":[],"categories_sizes":[],"default_left":[0,0,0,0,0,0,0,0,0,0,0,0,0,0,0],"id":24,"left_children":[1,3,5,7,9,11,13,-1,-1,-1,-1,-1,-1,-1,-1],"loss_changes":[2.4721554E1,4.167739E0,2.5633602E0,9.781122E-1,3.1921178E-1,4.5062923E-1,3.6087894E-1,0E0,0E0,0E0,0E0,0E0,0E0,0E0,0E0],"parents":[2147483647,0,0,1,1,2,2,3,3,4,4,5,5,6,6],"right_children":[2,4,6,8,10,12,14,-1,-1,-1,-1,-1,-1,-1,-1],"split_conditions":[3.16216E5,1.96241E5,4.30326E5,1.04642E5,2.50248E5,3.72328E5,4.88283E5,-2.5614897E-2,-1.4340145E-2,-5.796009E-3,2.38244E-3,1.1752493E-2,2.1548016E-2,3.28311E-2,4.995614E-2],"split_indices":[0,0,0,0,0,0,0,0,0,0,0,0,0,0,0],"split_type":[0,0,0,0,0,0,0,0,0,0,0,0,0,0,0],"sum_hessian":[8E2,5.05E2,2.95E2,3.15E2,1.9E2,1.94E2,1.01E2,1.69E2,1.46E2,9.4E1,9.6E1,1.06E2,8.8E1,8.4E1,1.7E1],"tree_param":{"num_deleted":"0","num_feature":"1","num_nodes":"15","size_leaf_vector":"1"}},{"base_weights":[5.7075004E-4,-1.3381016E-1,1.8702091E-1,-2.1690524E-1,-6.389059E-2,1.2736884E-1,3.239165E-1,-3.1007573E-2,-1.9766016E-2,-1.0453892E-2,-1.4871216E-3,6.000375E-3,1.691187E-2,2.9567404E-2,4.510324E-2],"categories":[],"categories_nodes":[],"categories_segments":[],"categories_sizes":[],"default_left":[0,0,0,0,0,0,0,0,0,0,0,0,0,0,0],"id":25,"left_children":[1,3,5,7,9,11,13,-1,-1,-1,-1,-1,-1,-1,-1],"loss_changes":[2.0069315E1,2.6976137E0,2.7191E0,3.503828E-1,5.043355E-1,6.544535E-1,2.9771233E-1,0E0,0E0,0E0,0E0,0E0,0E0,0E0,0E0],"parents":[2147483647,0,0,1,1,2,2,3,3,4,4,5,5,6,6],"right_children":[2,4,6,8,10,12,14,-1,-1,-1,-1,-1,-1,-1,-1],"split_conditions":[2.88039E5,1.29097E5,4.30326E5,1.7398E4,2.17043E5,3.38097E5,4.88283E5,-3.1007573E-2,-1.9766016E-2,-1.0453892E-2,-1.4871216E-3,6.000375E-3,1.691187E-2,2.9567404E-2,4.510324E-2],"split_indices":[0,0,0,0,0,0,0,0,0,0,0,0,0,0,0],"split_type":[0,0,0,0,0,0,0,0,0,0,0,0,0,0,0],"sum_hessian":[8E2,4.65E2,3.35E2,2.12E2,2.53E2,2.34E2,1.01E2,3.5E1,1.77E2,1.38E2,1.15E2,9E1,1.44E2,8.4E1,1.7E1],"tree_param":{"num_deleted":"0","num_feature":"1","num_nodes":"15","size_leaf_vector":"1"}},{"base_weights":[5.3543533E-4,-1.3398647E-1,1.5220684E-1,-1.995259E-1,-7.515508E-2,7.083546E-2,2.4720955E-1,-2.5063856E-2,-1.7175334E-2,-1.061527E-2,-4.0311934E-3,3.466148E-3,1.1320774E-2,2.0149386E-2,3.2882597E-2],"categories":[],"categories_nodes":[],"categories_segments":[],"categories_sizes":[],"default_left":[0,0,0,0,0,0,0,0,0,0,0,0,0,0,0],"id":26,"left_children":[1,3,5,7,9,11,13,-1,-1,-1,-1,-1,-1,-1,-1],"loss_changes":[1.6342901E1,1.6292796E0,2.9017782E0,2.6309156E-1,2.4033272E-1,3.0995762E-1,6.142273E-1,0E0,0E0,0E0,0E0,0E0,0E0,0E0,0E0],"parents":[2147483647,0,0,1,1,2,2,3,3,4,4,5,5,6,6],"right_children":[2,4,6,8,10,12,14,-1,-1,-1,-1,-1,-1,-1,-1],"split_conditions":[2.58975E5,1.23355E5,3.83875E5,4.0602E4,1.97169E5,3.28728E5,4.56865E5,-2.5063856E-2,-1.7175334E-2,-1.061527E-2,-4.0311934E-3,3.466148E-3,1.1320774E-2,2.0149386E-2,3.2882597E-2],"split_indices":[0,0,0,0,0,0,0,0,0,0,0,0,0,0,0],"split_type":[0,0,0,0,0,0,0,0,0,0,0,0,0,0,0],"sum_hessian":[8E2,4.24E2,3.76E2,2E2,2.24E2,2.03E2,1.73E2,6.9E1,1.31E2,1.18E2,1.06E2,1.1E2,9.3E1,1.12E2,6.1E1],"tree_param":{"num_deleted":"0","num_feature":"1","num_nodes":"15","size_leaf_vector":"1"}},{"base_weights":[4.887518E-4,-9.798032E-2,1.6893502E-1,-1.662719E-1,-3.2405246E-2,1.1879171E-1,2.6419023E-1,-2.1500934E-2,-1.3572583E-2,-6.453736E-3,1.4499801E-3,8.4989E-3,1.5879842E-2,2.396213E-2,3.7527483E-2],"categories":[],"categories_nodes":[],"categories_segments":[],"categories_sizes":[],"default_left":[0,0,0,0,0,0,0,0,0,0,0,0,0,0,0],"id":27,"left_children":[1,3,5,7,9,11,13,-1,-1,-1,-1,-1,-1,-1,-1],"loss_changes":[1.3285967E1,2.2610483E0,1.3957376E0,3.5387182E-1,3.9006835E-1,2.5628114E-1,2.3205471E-1,0E0,0E0,0E0,0E0,0E0,0E0,0E0,0E0],"parents":[2147483647,0,0,1,1,2,2,3,3,4,4,5,5,6,6],"right_children":[2,4,6,8,10,12,14,-1,-1,-1,-1,-1,-1,-1,-1],"split_conditions":[3.16216E5,1.4409E5,4.30326E5,5.3209E4,2.43915E5,3.72328E5,4.88283E5,-2.1500934E-2,-1.3572583E-2,-6.453736E-3,1.4499801E-3,8.4989E-3,1.5879842E-2,2.396213E-2,3.7527483E-2],"split_indices":[0,0,0,0,0,0,0,0,0,0,0,0,0,0,0],"split_type":[0,0,0,0,0,0,0,0,0,0,0,0,0,0,0],"sum_hessian":[8E2,5.05E2,2.95E2,2.47E2,2.58E2,1.94E2,1.01E2,9.4E1,1.53E2,1.53E2,1.05E2,1.06E2,8.8E1,8.4E1,1.7E1],"tree_param":{"num_deleted":"0","num_feature":"1","num_nodes":"15","size_leaf_vector":"1"}},{"base_weights":[4.6853386E-4,-8.8946685E-2,1.5099086E-1,-1.4285257E-1,-2.1876471E-2,1.0585438E-1,2.380742E-1,-1.8538494E-2,-1.1053883E-2,-4.8409505E-3,1.555703E-3,7.5342353E-3,1.430085E-2,2.0644136E-2,3.0832699E-2],"categories":[],"categories_nodes":[],"categories_segments":[],"categories_sizes":[],"default_left":[0,0,0,0,0,0,0,0,0,0,0,0,0,0,0],"id":28,"left_children":[1,3,5,7,9,11,13,-1,-1,-1,-1,-1,-1,-1,-1],"loss_changes":[1.0780634E1,1.8152165E0,1.1606941E0,3.7251854E-1,2.233554E-1,2.1850824E-1,1.937375E-1,0E0,0E0,0E0,0E0,0E0,0E0,0E0,0E0],"parents":[2147483647,0,0,1,1,2,2,3,3,4,4,5,5,6,6],"right_children":[2,4,6,8,10,12,14,-1,-1,-1,-1,-1,-1,-1,-1],"split_conditions":[3.13737E5,1.67217E5,4.30326E5,7.3783E4,2.50248E5,3.72328E5,4.76961E5,-1.8538494E-2,-1.1053883E-2,-4.8409505E-3,1.555703E-3,7.5342353E-3,1.430085E-2,2.0644136E-2,3.0832699E-2],"split_indices":[0,0,0,0,0,0,0,0,0,0,0,0,0,0,0],"split_type":[0,0,0,0,0,0,0,0,0,0,0,0,0,0,0],"sum_hessian":[8E2,5.02E2,2.98E2,2.78E2,2.24E2,1.97E2,1.01E2,1.19E2,1.59E2,1.31E2,9.3E1,1.09E2,8.8E1,7.1E1,3E1],"tree_param":{"num_deleted":"0","num_feature":"1","num_nodes":"15","size_leaf_vector":"1"}},{"base_weights":[4.4694927E-4,-9.55793E-2,1.1428919E-1,-1.485131E-1,-5.257134E-2,5.988552E-2,1.8874636E-1,-2.2384275E-2,-1.3463708E-2,-7.833793E-3,-2.4809742E-3,3.0229762E-3,9.470908E-3,1.5737712E-2,2.556835E-2],"categories":[],"categories_nodes":[],"categories_segments":[],"categories_sizes":[],"default_left":[0,0,0,0,0,0,0,0,0,0,0,0,0,0,0],"id":29,"left_children":[1,3,5,7,9,11,13,-1,-1,-1,-1,-1,-1,-1,-1],"loss_changes":[8.756401E0,9.852679E-1,1.4789462E0,1.8823719E-1,1.7106313E-1,2.1802127E-1,3.0429506E-1,0E0,0E0,0E0,0E0,0E0,0E0,0E0,0E0],"parents":[2147483647,0,0,1,1,2,2,3,3,4,4,5,5,6,6],"right_children":[2,4,6,8,10,12,14,-1,-1,-1,-1,-1,-1,-1,-1],"split_conditions":[2.66923E5,1.18523E5,3.96691E5,1.521E4,1.97169E5,3.35255E5,4.64574E5,-2.2384275E-2,-1.3463708E-2,-7.833793E-3,-2.4809742E-3,3.0229762E-3,9.470908E-3,1.5737712E-2,2.556835E-2],"split_indices":[0,0,0,0,0,0,0,0,0,0,0,0,0,0,0],"split_type":[0,0,0,0,0,0,0,0,0,0,0,0,0,0,0],"sum_hessian":[8E2,4.34E2,3.66E2,1.94E2,2.4E2,2.12E2,1.54E2,2.9E1,1.65E2,1.24E2,1.16E2,1.15E2,9.7E1,1.06E2,4.8E1],"tree_param":{"num_deleted":"0","num_feature":"1","num_nodes":"15","size_leaf_vector":"1"}},{"base_weights":[4.070367E-4,-7.171208E-2,1.2377762E-1,-1.2670659E-1,-2.7372973E-2,8.670361E-2,1.9421117E-1,-1.9475726E-2,-1.1369267E-2,-5.917158E-3,1.9143938E-4,6.2268972E-3,1.1561817E-2,1.8030297E-2,3.357773E-2],"categories":[],"categories_nodes":[],"categories_segments":[],"categories_sizes":[],"default_left":[0,0,0,0,0,0,0,0,0,0,0,0,0,0,0],"id":30,"left_children":[1,3,5,7,9,11,13,-1,-1,-1,-1,-1,-1,-1,-1],"loss_changes":[7.126788E0,1.2308807E0,7.63206E-1,1.886332E-1,2.612856E-1,1.3381779E-1,1.6957569E-1,0E0,0E0,0E0,0E0,0E0,0E0,0E0,0E0],"parents":[2147483647,0,0,1,1,2,2,3,3,4,4,5,5,6,6],"right_children":[2,4,6,8,10,12,14,-1,-1,-1,-1,-1,-1,-1,-1],"split_conditions":[3.16216E5,1.33807E5,4.30326E5,1.7398E4,2.19906E5,3.72328E5,4.9293E5,-1.9475726E-2,-1.1369267E-2,-5.917158E-3,1.9143938E-4,6.2268972E-3,1.1561817E-2,1.8030297E-2,3.357773E-2],"split_indices":[0,0,0,0,0,0,0,0,0,0,0,0,0,0,0],"split_type":[0,0,0,0,0,0,0,0,0,0,0,0,0,0,0],"sum_hessian":[8E2,5.05E2,2.95E2,2.25E2,2.8E2,1.94E2,1.01E2,3.5E1,1.9E2,1.34E2,1.46E2,1.06E2,8.8E1,9.3E1,8E0],"tree_param":{"num_deleted":"0","num_feature":"1","num_nodes":"15","size_leaf_vector":"1"}},{"base_weights":[3.8682699E-4,-8.0384396E-2,9.0096645E-2,-1.23640895E-1,-4.7572553E-2,4.4047415E-2,1.5014869E-1,-1.8269224E-2,-1.1181247E-2,-6.5191905E-3,-2.3935386E-3,2.1610088E-3,7.320837E-3,1.2882038E-2,2.231792E-2],"categories":[],"categories_nodes":[],"categories_segments":[],"categories_sizes":[],"default_left":[0,0,0,0,0,0,0,0,0,0,0,0,0,0,0],"id":31,"left_children":[1,3,5,7,9,11,13,-1,-1,-1,-1,-1,-1,-1,-1],"loss_changes":[5.8040214E0,5.953045E-1,1.0461435E0,1.1656141E-1,9.938121E-2,1.4020932E-1,2.4185276E-1,0E0,0E0,0E0,0E0,0E0,0E0,0E0,0E0],"parents":[2147483647,0,0,1,1,2,2,3,3,4,4,5,5,6,6],"right_children":[2,4,6,8,10,12,14,-1,-1,-1,-1,-1,-1,-1,-1],"split_conditions":[2.57205E5,1.12013E5,3.90994E5,1.521E4,1.97169E5,3.34215E5,4.72902E5,-1.8269224E-2,-1.1181247E-2,-6.5191905E-3,-2.3935386E-3,2.1610088E-3,7.320837E-3,1.2882038E-2,2.231792E-2],"split_indices":[0,0,0,0,0,0,0,0,0,0,0,0,0,0,0],"split_type":[0,0,0,0,0,0,0,0,0,0,0,0,0,0,0],"sum_hessian":[8E2,4.21E2,3.79E2,1.81E2,2.4E2,2.15E2,1.64E2,2.9E1,1.52E2,1.37E2,1.03E2,1.22E2,9.3E1,1.28E2,3.6E1],"tree_param":{"num_deleted":"0","num_feature":"1","num_nodes":"15","size_leaf_vector":"1"}},{"base_weights":[3.520432E-4,-6.282597E-2,9.360498E-2,-1.07909635E-1,-3.0138806E-2,6.1297912E-2,1.54757E-1,-1.5449958E-2,-9.544921E-3,-5.040569E-3,-2.7325787E-4,3.3834004E-3,8.172836E-3,1.4346342E-2,2.8316949E-2],"categories":[],"categories_nodes":[],"categories_segments":[],"categories_sizes":[],"default_left":[0,0,0,0,0,0,0,0,0,0,0,0,0,0,0],"id":32,"left_children":[1,3,5,7,9,11,13,-1,-1,-1,-1,-1,-1,-1,-1],"loss_changes":[4.7191143E0,7.020451E-1,6.34377E-1,1.09022856E-1,1.5406543E-1,1.178512E-1,1.413889E-1,0E0,0E0,0E0,0E0,0E0,0E0,0E0,0E0],"parents":[2147483647,0,0,1,1,2,2,3,3,4,4,5,5,6,6],"right_children":[2,4,6,8,10,12,14,-1,-1,-1,-1,-1,-1,-1,-1],"split_conditions":[2.98253E5,1.23355E5,4.25641E5,2.1325E4,2.19906E5,3.46902E5,4.9293E5,-1.5449958E-2,-9.544921E-3,-5.040569E-3,-2.7325787E-4,3.3834004E-3,8.172836E-3,1.4346342E-2,2.8316949E-2],"split_indices":[0,0,0,0,0,0,0,0,0,0,0,0,0,0,0],"split_type":[0,0,0,0,0,0,0,0,0,0,0,0,0,0,0],"sum_hessian":[8E2,4.77E2,3.23E2,2E2,2.77E2,2.12E2,1.11E2,4.1E1,1.59E2,1.59E2,1.18E2,9.1E1,1.21E2,1.03E2,8E0],"tree_param":{"num_deleted":"0","num_feature":"1","num_nodes":"15","size_leaf_vector":"1"}},{"base_weights":[3.317499E-4,-6.4859994E-2,7.383435E-2,-1.0224916E-1,-3.9188463E-2,4.259527E-2,1.332533E-1,-1.6886657E-2,-9.489893E-3,-5.4344074E-3,-1.9148054E-3,1.9226874E-3,6.63621E-3,1.1957097E-2,2.1740397E-2],"categories":[],"categories_nodes":[],"categories_segments":[],"categories_sizes":[],"default_left":[0,0,0,0,0,0,0,0,0,0,0,0,0,0,0],"id":33,"left_children":[1,3,5,7,9,11,13,-1,-1,-1,-1,-1,-1,-1,-1],"loss_changes":[3.8382006E0,4.0544724E-1,6.9601893E-1,7.645261E-2,7.6170206E-2,1.3682166E-1,1.3610578E-1,0E0,0E0,0E0,0E0,0E0,0E0,0E0,0E0],"parents":[2147483647,0,0,1,1,2,2,3,3,4,4,5,5,6,6],"right_children":[2,4,6,8,10,12,14,-1,-1,-1,-1,-1,-1,-1,-1],"split_conditions":[2.58975E5,1.06371E5,4.10723E5,8.364E3,1.96241E5,3.35255E5,4.88283E5,-1.6886657E-2,-9.489893E-3,-5.4344074E-3,-1.9148054E-3,1.9226874E-3,6.63621E-3,1.1957097E-2,2.1740397E-2],"split_indices":[0,0,0,0,0,0,0,0,0,0,0,0,0,0,0],"split_type":[0,0,0,0,0,0,0,0,0,0,0,0,0,0,0],"sum_hessian":[8E2,4.24E2,3.76E2,1.72E2,2.52E2,2.47E2,1.29E2,1.6E1,1.56E2,1.43E2,1.09E2,1.25E2,1.22E2,1.12E2,1.7E1],"tree_param":{"num_deleted":"0","num_feature":"1","num_nodes":"15","size_leaf_vector":"1"}},{"base_weights":[3.03906E-4,-4.744898E-2,8.199234E-2,-8.474721E-2,-1.8790392E-2,6.2950484E-2,1.4970078E-1,-1.1463733E-2,-6.976818E-3,-3.677625E-3,4.7605872E-4,4.0666666E-3,8.160986E-3,1.3538442E-2,2.3605661E-2],"categories":[],"categories_nodes":[],"categories_segments":[],"categories_sizes":[],"default_left":[0,0,0,0,0,0,0,0,0,0,0,0,0,0,0],"id":34,"left_children":[1,3,5,7,9,11,13,-1,-1,-1,-1,-1,-1,-1,-1],"loss_changes":[3.1245828E0,5.395402E-1,3.7627447E-1,9.427667E-2,1.21444516E-1,9.459889E-2,6.376219E-2,0E0,0E0,0E0,0E0,0E0,0E0,0E0,0E0],"parents":[2147483647,0,0,1,1,2,2,3,3,4,4,5,5,6,6],"right_children":[2,4,6,8,10,12,14,-1,-1,-1,-1,-1,-1,-1,-1],"split_conditions":[3.16216E5,1.31901E5,4.55314E5,4.1856E4,2.34114E5,3.72328E5,4.9293E5,-1.1463733E-2,-6.976818E-3,-3.677625E-3,4.7605872E-4,4.0666666E-3,8.160986E-3,1.3538442E-2,2.3605661E-2],"split_indices":[0,0,0,0,0,0,0,0,0,0,0,0,0,0,0],"split_type":[0,0,0,0,0,0,0,0,0,0,0,0,0,0,0],"sum_hessian":[8E2,5.05E2,2.95E2,2.19E2,2.86E2,2.31E2,6.4E1,7.2E1,1.47E2,1.62E2,1.24E2,1.06E2,1.25E2,5.6E1,8E0],"tree_param":{"num_deleted":"0","num_feature":"1","num_nodes":"15","size_leaf_vector":"1"}},{"base_weights":[2.9084837E-4,-5.4372426E-2,5.8330633E-2,-9.083573E-2,-3.724237E-2,2.6299031E-2,9.794818E-2,-1.4137531E-2,-8.322257E-3,-4.7478005E-3,-1.7682413E-3,1.2433424E-3,4.432456E-3,7.723752E-3,1.3800129E-2],"categories":[],"categories_nodes":[],"categories_segments":[],"categories_sizes":[],"default_left":[0,0,0,0,0,0,0,0,0,0,0,0,0,0,0],"id":35,"left_children":[1,3,5,7,9,11,13,-1,-1,-1,-1,-1,-1,-1,-1],"loss_changes":[2.541288E0,2.5596356E-1,4.9172378E-1,4.4713855E-2,5.593899E-2,5.3585425E-2,1.3859355E-1,0E0,0E0,0E0,0E0,0E0,0E0,0E0,0E0],"parents":[2147483647,0,0,1,1,2,2,3,3,4,4,5,5,6,6],"right_children":[2,4,6,8,10,12,14,-1,-1,-1,-1,-1,-1,-1,-1],"split_conditions":[2.5176E5,8.1299E4,3.83875E5,8.364E3,1.96241E5,3.28728E5,4.59549E5,-1.4137531E-2,-8.322257E-3,-4.7478005E-3,-1.7682413E-3,1.2433424E-3,4.432456E-3,7.723752E-3,1.3800129E-2],"split_indices":[0,0,0,0,0,0,0,0,0,0,0,0,0,0,0],"split_type":[0,0,0,0,0,0,0,0,0,0,0,0,0,0,0],"sum_hessian":[8E2,4.12E2,3.88E2,1.31E2,2.81E2,2.15E2,1.73E2,1.6E1,1.15E2,1.84E2,9.7E1,1.22E2,9.3E1,1.15E2,5.8E1],"tree_param":{"num_deleted":"0","num_feature":"1","num_nodes":"15","size_leaf_vector":"1"}},{"base_weights":[2.6063842E-4,-4.1531872E-2,6.194779E-2,-7.243572E-2,-2.0256512E-2,4.3030597E-2,1.1116688E-1,-1.1359904E-2,-6.487962E-3,-3.3692406E-3,-2.2033369E-4,2.519177E-3,5.8690635E-3,1.0304066E-2,2.2590898E-2],"categories":[],"categories_nodes":[],"categories_segments":[],"categories_sizes":[],"default_left":[0,0,0,0,0,0,0,0,0,0,0,0,0,0,0],"id":36,"left_children":[1,3,5,7,9,11,13,-1,-1,-1,-1,-1,-1,-1,-1],"loss_changes":[2.0650244E0,3.1321812E-1,2.98815E-1,5.6811094E-2,6.87288E-2,6.476992E-2,7.181251E-2,0E0,0E0,0E0,0E0,0E0,0E0,0E0,0E0],"parents":[2147483647,0,0,1,1,2,2,3,3,4,4,5,5,6,6],"right_children":[2,4,6,8,10,12,14,-1,-1,-1,-1,-1,-1,-1,-1],"split_conditions":[2.98253E5,1.18523E5,4.37692E5,1.521E4,2.18377E5,3.62017E5,4.94968E5,-1.1359904E-2,-6.487962E-3,-3.3692406E-3,-2.2033369E-4,2.519177E-3,5.8690635E-3,1.0304066E-2,2.2590898E-2],"split_indices":[0,0,0,0,0,0,0,0,0,0,0,0,0,0,0],"split_type":[0,0,0,0,0,0,0,0,0,0,0,0,0,0,0],"sum_hessian":[8E2,4.77E2,3.23E2,1.94E2,2.83E2,2.34E2,8.9E1,2.9E1,1.65E2,1.62E2,1.21E2,1.1E2,1.24E2,8.4E1,5E0],"tree_param":{"num_deleted":"0","num_feature":"1","num_nodes":"15","size_leaf_vector":"1"}},{"base_weights":[2.4700788E-4,-4.422337E-2,4.746427E-2,-7.605066E-2,-3.0726103E-2,2.6712384E-2,8.88649E-2,-1.1665051E-2,-6.94035E-3,-3.888324E-3,-1.4379753E-3,1.1087436E-3,4.2598182E-3,8.0594E-3,1.7022751E-2],"categories":[],"categories_nodes":[],"categories_segments":[],"categories_sizes":[],"default_left":[0,0,0,0,0,0,0,0,0,0,0,0,0,0,0],"id":37,"left_children":[1,3,5,7,9,11,13,-1,-1,-1,-1,-1,-1,-1,-1],"loss_changes":[1.6819148E0,1.7603391E-1,3.3258933E-1,2.9011607E-2,3.8455576E-2,6.417556E-2,8.028638E-2,0E0,0E0,0E0,0E0,0E0,0E0,0E0,0E0],"parents":[2147483647,0,0,1,1,2,2,3,3,4,4,5,5,6,6],"right_children":[2,4,6,8,10,12,14,-1,-1,-1,-1,-1,-1,-1,-1],"split_conditions":[2.5176E5,7.737E4,4.10723E5,8.364E3,1.96241E5,3.34215E5,4.92389E5,-1.1665051E-2,-6.94035E-3,-3.888324E-3,-1.4379753E-3,1.1087436E-3,4.2598182E-3,8.0594E-3,1.7022751E-2],"split_indices":[0,0,0,0,0,0,0,0,0,0,0,0,0,0,0],"split_type":[0,0,0,0,0,0,0,0,0,0,0,0,0,0,0],"sum_hessian":[8E2,4.12E2,3.88E2,1.22E2,2.9E2,2.59E2,1.29E2,1.6E1,1.06E2,1.93E2,9.7E1,1.31E2,1.28E2,1.18E2,1.1E1],"tree_param":{"num_deleted":"0","num_feature":"1","num_nodes":"15","size_leaf_vector":"1"}},{"base_weights":[2.264117E-4,-3.140248E-2,5.4332305E-2,-5.2731268E-2,-8.885151E-3,4.0377468E-2,9.8582655E-2,-7.453409E-3,-4.1326517E-3,-2.0625207E-3,3.277973E-4,2.6698448E-3,5.2399454E-3,9.016254E-3,1.898965E-2],"categories":[],"categories_nodes":[],"categories_segments":[],"categories_sizes":[],"default_left":[0,0,0,0,0,0,0,0,0,0,0,0,0,0,0],"id":38,"left_children":[1,3,5,7,9,11,13,-1,-1,-1,-1,-1,-1,-1,-1],"loss_changes":[1.3707563E0,2.4254078E-1,1.8048292E-1,6.2986076E-2,3.523296E-2,3.6383778E-2,4.564476E-2,0E0,0E0,0E0,0E0,0E0,0E0,0E0,0E0],"parents":[2147483647,0,0,1,1,2,2,3,3,4,4,5,5,6,6],"right_children":[2,4,6,8,10,12,14,-1,-1,-1,-1,-1,-1,-1,-1],"split_conditions":[3.16216E5,1.53433E5,4.50851E5,4.9314E4,2.34711E5,3.72328E5,4.94968E5,-7.453409E-3,-4.1326517E-3,-2.0625207E-3,3.277973E-4,2.6698448E-3,5.2399454E-3,9.016254E-3,1.898965E-2],"split_indices":[0,0,0,0,0,0,0,0,0,0,0,0,0,0,0],"split_type":[0,0,0,0,0,0,0,0,0,0,0,0,0,0,0],"sum_hessian":[8E2,5.05E2,2.95E2,2.59E2,2.46E2,2.25E2,7E1,8.8E1,1.71E2,1.25E2,1.21E2,1.06E2,1.19E2,6.5E1,5E0],"tree_param":{"num_deleted":"0","num_feature":"1","num_nodes":"15","size_leaf_vector":"1"}},{"base_weights":[2.1790649E-4,-2.8275402E-2,4.89599E-2,-5.3432185E-2,-1.252217E-2,3.7010305E-2,9.146923E-2,-9.129326E-3,-4.833891E-3,-2.2571278E-3,2.662318E-4,2.4041173E-3,4.786853E-3,8.319802E-3,1.7263327E-2],"categories":[],"categories_nodes":[],"categories_segments":[],"categories_sizes":[],"default_left":[0,0,0,0,0,0,0,0,0,0,0,0,0,0,0],"id":39,"left_children":[1,3,5,7,9,11,13,-1,-1,-1,-1,-1,-1,-1,-1],"loss_changes":[1.1124431E0,1.9999543E-1,1.4841223E-1,3.5300314E-2,4.7562E-2,3.202483E-2,3.6119103E-2,0E0,0E0,0E0,0E0,0E0,0E0,0E0,0E0],"parents":[2147483647,0,0,1,1,2,2,3,3,4,4,5,5,6,6],"right_children":[2,4,6,8,10,12,14,-1,-1,-1,-1,-1,-1,-1,-1],"split_conditions":[3.16216E5,1.18523E5,4.55314E5,1.0623E4,2.34114E5,3.72328E5,4.94968E5,-9.129326E-3,-4.833891E-3,-2.2571278E-3,2.662318E-4,2.4041173E-3,4.786853E-3,8.319802E-3,1.7263327E-2],"split_indices":[0,0,0,0,0,0,0,0,0,0,0,0,0,0,0],"split_type":[0,0,0,0,0,0,0,0,0,0,0,0,0,0,0],"sum_hessian":[8E2,5.05E2,2.95E2,1.94E2,3.11E2,2.31E2,6.4E1,2.2E1,1.72E2,1.87E2,1.24E2,1.06E2,1.25E2,5.9E1,5E0],"tree_param":{"num_deleted":"0","num_feature":"1","num_nodes":"15","size_leaf_vector":"1"}},{"base_weights":[2.0657388E-4,-3.0223155E-2,3.73888E-2,-5.4662116E-2,-1.9334152E-2,2.595953E-2,7.762333E-2,-8.925873E-3,-4.9656467E-3,-2.757429E-3,-7.4057735E-4,1.167511E-3,3.7832942E-3,6.9610425E-3,1.4045996E-2],"categories":[],"categories_nodes":[],"categories_segments":[],"categories_sizes":[],"default_left":[0,0,0,0,0,0,0,0,0,0,0,0,0,0,0],"id":40,"left_children":[1,3,5,7,9,11,13,-1,-1,-1,-1,-1,-1,-1,-1],"loss_changes":[9.062869E-1,1.1669567E-1,1.6476887E-1,2.1249563E-2,2.9925935E-2,4.7522888E-2,3.513983E-2,0E0,0E0,0E0,0E0,0E0,0E0,0E0,0E0],"parents":[2147483647,0,0,1,1,2,2,3,3,4,4,5,5,6,6],"right_children":[2,4,6,8,10,12,14,-1,-1,-1,-1,-1,-1,-1,-1],"split_conditions":[2.71801E5,8.3144E4,4.4087E5,8.364E3,1.96241E5,3.46902E5,4.9293E5,-8.925873E-3,-4.9656467E-3,-2.757429E-3,-7.4057735E-4,1.167511E-3,3.7832942E-3,6.9610425E-3,1.4045996E-2],"split_indices":[0,0,0,0,0,0,0,0,0,0,0,0,0,0,0],"split_type":[0,0,0,0,0,0,0,0,0,0,0,0,0,0,0],"sum_hessian":[8E2,4.4E2,3.6E2,1.35E2,3.05E2,2.81E2,7.9E1,1.6E1,1.19E2,1.8E2,1.25E2,1.28E2,1.53E2,7.1E1,8E0],"tree_param":{"num_deleted":"0","num_feature":"1","num_nodes":"15","size_leaf_vector":"1"}},{"base_weights":[1.9130629E-4,-2.9262258E-2,3.1464152E-2,-5.0972022E-2,-2.0057173E-2,1.8125754E-2,6.105442E-2,-8.060333E-3,-4.614195E-3,-2.7139185E-3,-1.1742207E-3,8.923542E-4,3.0277066E-3,5.2361405E-3,1.0218227E-2],"categories":[],"categories_nodes":[],"categories_segments":[],"categories_sizes":[],"default_left":[0,0,0,0,0,0,0,0,0,0,0,0,0,0,0],"id":41,"left_children":[1,3,5,7,9,11,13,-1,-1,-1,-1,-1,-1,-1,-1],"loss_changes":[7.377982E-1,8.192292E-2,1.5278253E-1,1.5672773E-2,1.6947247E-2,2.9888295E-2,4.0406555E-2,0E0,0E0,0E0,0E0,0E0,0E0,0E0,0E0],"parents":[2147483647,0,0,1,1,2,2,3,3,4,4,5,5,6,6],"right_children":[2,4,6,8,10,12,14,-1,-1,-1,-1,-1,-1,-1,-1],"split_conditions":[2.5176E5,7.737E4,4.18403E5,8.364E3,1.67217E5,3.45395E5,4.87074E5,-8.060333E-3,-4.614195E-3,-2.7139185E-3,-1.1742207E-3,8.923542E-4,3.0277066E-3,5.2361405E-3,1.0218227E-2],"split_indices":[0,0,0,0,0,0,0,0,0,0,0,0,0,0,0],"split_type":[0,0,0,0,0,0,0,0,0,0,0,0,0,0,0],"sum_hessian":[8E2,4.12E2,3.88E2,1.22E2,2.9E2,2.68E2,1.2E2,1.6E1,1.06E2,1.56E2,1.34E2,1.53E2,1.15E2,1E2,2E1],"tree_param":{"num_deleted":"0","num_feature":"1","num_nodes":"15","size_leaf_vector":"1"}},{"base_weights":[1.7390552E-4,-2.0789998E-2,3.603572E-2,-3.8692098E-2,-8.712402E-3,2.7053637E-2,6.7994386E-2,-5.7036234E-3,-3.204255E-3,-1.7724893E-3,-1.35562805E-5,1.7619774E-3,3.4951482E-3,6.124023E-3,1.3488077E-2],"categories":[],"categories_nodes":[],"categories_segments":[],"categories_sizes":[],"default_left":[0,0,0,0,0,0,0,0,0,0,0,0,0,0,0],"id":42,"left_children":[1,3,5,7,9,11,13,-1,-1,-1,-1,-1,-1,-1,-1],"loss_changes":[6.021933E-1,1.09127805E-1,8.39051E-2,2.3909181E-2,2.3381649E-2,1.6940504E-2,2.500853E-2,0E0,0E0,0E0,0E0,0E0,0E0,0E0,0E0],"parents":[2147483647,0,0,1,1,2,2,3,3,4,4,5,5,6,6],"right_children":[2,4,6,8,10,12,14,-1,-1,-1,-1,-1,-1,-1,-1],"split_conditions":[3.16216E5,1.24809E5,4.55314E5,2.9604E4,2.17043E5,3.72328E5,4.94968E5,-5.7036234E-3,-3.204255E-3,-1.7724893E-3,-1.35562805E-5,1.7619774E-3,3.4951482E-3,6.124023E-3,1.3488077E-2],"split_indices":[0,0,0,0,0,0,0,0,0,0,0,0,0,0,0],"split_type":[0,0,0,0,0,0,0,0,0,0,0,0,0,0,0],"sum_hessian":[8E2,5.05E2,2.95E2,2.03E2,3.02E2,2.31E2,6.4E1,5.3E1,1.5E2,1.47E2,1.55E2,1.06E2,1.25E2,5.9E1,5E0],"tree_param":{"num_deleted":"0","num_feature":"1","num_nodes":"15","size_leaf_vector":"1"}},{"base_weights":[1.6535807E-4,-2.0838905E-2,2.9308137E-2,-3.740513E-2,-1.1333359E-2,2.0518163E-2,5.7483908E-2,-7.081806E-3,-3.4403359E-3,-1.8481929E-3,-3.647143E-4,1.0502841E-3,2.7883714E-3,5.2289474E-3,1.2261911E-2],"categories":[],"categories_nodes":[],"categories_segments":[],"categories_sizes":[],"default_left":[0,0,0,0,0,0,0,0,0,0,0,0,0,0,0],"id":43,"left_children":[1,3,5,7,9,11,13,-1,-1,-1,-1,-1,-1,-1,-1],"loss_changes":[4.903095E-1,7.309079E-2,8.250162E-2,1.5782297E-2,1.6257629E-2,1.8775165E-2,2.369225E-2,0E0,0E0,0E0,0E0,0E0,0E0,0E0,0E0],"parents":[2147483647,0,0,1,1,2,2,3,3,4,4,5,5,6,6],"right_children":[2,4,6,8,10,12,14,-1,-1,-1,-1,-1,-1,-1,-1],"split_conditions":[2.88039E5,1.04642E5,4.4087E5,5.033E3,2.00217E5,3.52104E5,4.94968E5,-7.081806E-3,-3.4403359E-3,-1.8481929E-3,-3.647143E-4,1.0502841E-3,2.7883714E-3,5.2289474E-3,1.2261911E-2],"split_indices":[0,0,0,0,0,0,0,0,0,0,0,0,0,0,0],"split_type":[0,0,0,0,0,0,0,0,0,0,0,0,0,0,0],"sum_hessian":[8E2,4.65E2,3.35E2,1.69E2,2.96E2,2.56E2,7.9E1,1.3E1,1.56E2,1.53E2,1.43E2,1.09E2,1.47E2,7.4E1,5E0],"tree_param":{"num_deleted":"0","num_feature":"1","num_nodes":"15","size_leaf_vector":"1"}},{"base_weights":[1.541492E-4,-2.1535048E-2,2.3183022E-2,-4.0796697E-2,-1.5548429E-2,1.3791484E-2,4.645262E-2,-6.3998546E-3,-3.6848492E-3,-2.0529793E-3,-8.768567E-4,5.4754014E-4,2.120902E-3,4.116327E-3,9.065728E-3],"categories":[],"categories_nodes":[],"categories_segments":[],"categories_sizes":[],"default_left":[0,0,0,0,0,0,0,0,0,0,0,0,0,0,0],"id":44,"left_children":[1,3,5,7,9,11,13,-1,-1,-1,-1,-1,-1,-1,-1],"loss_changes":[4.0008157E-1,4.724911E-2,8.458142E-2,7.7524334E-3,1.0565363E-2,1.7059475E-2,2.4204358E-2,0E0,0E0,0E0,0E0,0E0,0E0,0E0,0E0],"parents":[2147483647,0,0,1,1,2,2,3,3,4,4,5,5,6,6],"right_children":[2,4,6,8,10,12,14,-1,-1,-1,-1,-1,-1,-1,-1],"split_conditions":[2.5176E5,5.5206E4,4.25641E5,5.033E3,1.67217E5,3.34215E5,4.92389E5,-6.3998546E-3,-3.6848492E-3,-2.0529793E-3,-8.768567E-4,5.4754014E-4,2.120902E-3,4.116327E-3,9.065728E-3],"split_indices":[0,0,0,0,0,0,0,0,0,0,0,0,0,0,0],"split_type":[0,0,0,0,0,0,0,0,0,0,0,0,0,0,0],"sum_hessian":[8E2,4.12E2,3.88E2,9.7E1,3.15E2,2.77E2,1.11E2,1.3E1,8.4E1,1.81E2,1.34E2,1.31E2,1.46E2,1E2,1.1E1],"tree_param":{"num_deleted":"0","num_feature":"1","num_nodes":"15","size_leaf_vector":"1"}},{"base_weights":[1.4048292E-4,-1.5504063E-2,2.6058827E-2,-3.0315066E-2,-7.679178E-3,2.1367244E-2,6.327257E-2,-4.5324555E-3,-2.5462965E-3,-1.2446746E-3,1.8692517E-4,1.4134323E-3,3.006002E-3,5.445144E-3,1.0323005E-2],"categories":[],"categories_nodes":[],"categories_segments":[],"categories_sizes":[],"default_left":[0,0,0,0,0,0,0,0,0,0,0,0,0,0,0],"id":45,"left_children":[1,3,5,7,9,11,13,-1,-1,-1,-1,-1,-1,-1,-1],"loss_changes":[3.2478932E-1,5.7772867E-2,5.1963344E-2,1.1985704E-2,1.4920346E-2,1.6669288E-2,8.997232E-3,0E0,0E0,0E0,0E0,0E0,0E0,0E0,0E0],"parents":[2147483647,0,0,1,1,2,2,3,3,4,4,5,5,6,6],"right_children":[2,4,6,8,10,12,14,-1,-1,-1,-1,-1,-1,-1,-1],"split_conditions":[3.12744E5,1.06371E5,4.74135E5,2.1325E4,2.39063E5,3.96691E5,4.94968E5,-4.5324555E-3,-2.5462965E-3,-1.2446746E-3,1.8692517E-4,1.4134323E-3,3.006002E-3,5.445144E-3,1.0323005E-2],"split_indices":[0,0,0,0,0,0,0,0,0,0,0,0,0,0,0],"split_type":[0,0,0,0,0,0,0,0,0,0,0,0,0,0,0],"sum_hessian":[8E2,4.99E2,3.01E2,1.72E2,3.27E2,2.68E2,3.3E1,4.1E1,1.31E2,2.18E2,1.09E2,1.47E2,1.21E2,2.8E1,5E0],"tree_param":{"num_deleted":"0","num_feature":"1","num_nodes":"15","size_leaf_vector":"1"}},{"base_weights":[1.3399469E-4,-1.7490309E-2,1.8846884E-2,-3.3400293E-2,-1.2545874E-2,1.2153486E-2,4.1140176E-2,-5.3471136E-3,-2.9996077E-3,-1.6703345E-3,-6.8889686E-4,5.6751835E-4,1.9765466E-3,3.7466194E-3,9.384589E-3],"categories":[],"categories_nodes":[],"categories_segments":[],"categories_sizes":[],"default_left":[0,0,0,0,0,0,0,0,0,0,0,0,0,0,0],"id":46,"left_children":[1,3,5,7,9,11,13,-1,-1,-1,-1,-1,-1,-1,-1],"loss_changes":[2.6417103E-1,3.2240167E-2,5.7721183E-2,5.85977E-3,7.362526E-3,1.4713068E-2,1.55727565E-2,0E0,0E0,0E0,0E0,0E0,0E0,0E0,0E0],"parents":[2147483647,0,0,1,1,2,2,3,3,4,4,5,5,6,6],"right_children":[2,4,6,8,10,12,14,-1,-1,-1,-1,-1,-1,-1,-1],"split_conditions":[2.5176E5,5.5206E4,4.37692E5,5.033E3,1.67217E5,3.52104E5,4.94968E5,-5.3471136E-3,-2.9996077E-3,-1.6703345E-3,-6.8889686E-4,5.6751835E-4,1.9765466E-3,3.7466194E-3,9.384589E-3],"split_indices":[0,0,0,0,0,0,0,0,0,0,0,0,0,0,0],"split_type":[0,0,0,0,0,0,0,0,0,0,0,0,0,0,0],"sum_hessian":[8E2,4.12E2,3.88E2,9.7E1,3.15E2,2.99E2,8.9E1,1.3E1,8.4E1,1.81E2,1.34E2,1.62E2,1.37E2,8.4E1,5E0],"tree_param":{"num_deleted":"0","num_feature":"1","num_nodes":"15","size_leaf_vector":"1"}},{"base_weights":[1.2372328E-4,-1.2435106E-2,2.1607399E-2,-2.300138E-2,-4.9482523E-3,1.760481E-2,5.2648474E-2,-3.4624354E-3,-1.8543535E-3,-1.033517E-3,-3.041945E-6,1.0877209E-3,2.3407862E-3,4.5420784E-3,8.531484E-3],"categories":[],"categories_nodes":[],"categories_segments":[],"categories_sizes":[],"default_left":[0,0,0,0,0,0,0,0,0,0,0,0,0,0,0],"id":47,"left_children":[1,3,5,7,9,11,13,-1,-1,-1,-1,-1,-1,-1,-1],"loss_changes":[2.161171E-1,3.993226E-2,3.6250874E-2,1.0533884E-2,7.85471E-3,1.0120854E-2,5.971901E-3,0E0,0E0,0E0,0E0,0E0,0E0,0E0,0E0],"parents":[2147483647,0,0,1,1,2,2,3,3,4,4,5,5,6,6],"right_children":[2,4,6,8,10,12,14,-1,-1,-1,-1,-1,-1,-1,-1],"split_conditions":[3.16216E5,1.28296E5,4.74135E5,3.5528E4,2.17043E5,3.83875E5,4.94968E5,-3.4624354E-3,-1.8543535E-3,-1.033517E-3,-3.041945E-6,1.0877209E-3,2.3407862E-3,4.5420784E-3,8.531484E-3],"split_indices":[0,0,0,0,0,0,0,0,0,0,0,0,0,0,0],"split_type":[0,0,0,0,0,0,0,0,0,0,0,0,0,0,0],"sum_hessian":[8E2,5.05E2,2.95E2,2.09E2,2.96E2,2.62E2,3.3E1,5.7E1,1.52E2,1.41E2,1.55E2,1.22E2,1.4E2,2.8E1,5E0],"tree_param":{"num_deleted":"0","num_feature":"1","num_nodes":"15","size_leaf_vector":"1"}},{"base_weights":[1.1770578E-4,-1.0643507E-2,2.0530716E-2,-1.94928E-2,-2.9109807E-3,1.5669094E-2,4.161868E-2,-3.7074338E-3,-1.7040819E-3,-6.986322E-4,2.223528E-4,1.1557544E-3,2.045973E-3,3.6920179E-3,7.7558868E-3],"categories":[],"categories_nodes":[],"categories_segments":[],"categories_sizes":[],"default_left":[0,0,0,0,0,0,0,0,0,0,0,0,0,0,0],"id":48,"left_children":[1,3,5,7,9,11,13,-1,-1,-1,-1,-1,-1,-1,-1],"loss_changes":[1.759541E-1,3.5861794E-2,2.8021187E-2,1.0224409E-2,5.877194E-3,4.323423E-3,7.264808E-3,0E0,0E0,0E0,0E0,0E0,0E0,0E0,0E0],"parents":[2147483647,0,0,1,1,2,2,3,3,4,4,5,5,6,6],"right_children":[2,4,6,8,10,12,14,-1,-1,-1,-1,-1,-1,-1,-1],"split_conditions":[3.22364E5,1.43271E5,4.62649E5,1.521E4,2.43915E5,3.96691E5,4.94968E5,-3.7074338E-3,-1.7040819E-3,-6.986322E-4,2.223528E-4,1.1557544E-3,2.045973E-3,3.6920179E-3,7.7558868E-3],"split_indices":[0,0,0,0,0,0,0,0,0,0,0,0,0,0,0],"split_type":[0,0,0,0,0,0,0,0,0,0,0,0,0,0,0],"sum_hessian":[8E2,5.24E2,2.76E2,2.44E2,2.8E2,2.25E2,5.1E1,2.9E1,2.15E2,1.56E2,1.24E2,1.22E2,1.03E2,4.6E1,5E0],"tree_param":{"num_deleted":"0","num_feature":"1","num_nodes":"15","size_leaf_vector":"1"}},{"base_weights":[1.1136812E-4,-1.1229912E-2,1.5847018E-2,-2.3284081E-2,-6.9147716E-3,1.18872635E-2,3.7567917E-2,-4.141775E-3,-2.0942104E-3,-1.0692909E-3,-1.8580857E-4,6.7809894E-4,1.7245573E-3,3.3267853E-3,7.0507745E-3],"categories":[],"categories_nodes":[],"categories_segments":[],"categories_sizes":[],"default_left":[0,0,0,0,0,0,0,0,0,0,0,0,0,0,0],"id":49,"left_children":[1,3,5,7,9,11,13,-1,-1,-1,-1,-1,-1,-1,-1],"loss_changes":[1.4294815E-1,2.4132684E-2,2.8632864E-2,4.7687218E-3,6.5525807E-3,7.7257305E-3,6.1218143E-3,0E0,0E0,0E0,0E0,0E0,0E0,0E0,0E0],"parents":[2147483647,0,0,1,1,2,2,3,3,4,4,5,5,6,6],"right_children":[2,4,6,8,10,12,14,-1,-1,-1,-1,-1,-1,-1,-1],"split_conditions":[2.88039E5,7.737E4,4.62649E5,5.033E3,1.97169E5,3.72328E5,4.94968E5,-4.141775E-3,-2.0942104E-3,-1.0692909E-3,-1.8580857E-4,6.7809894E-4,1.7245573E-3,3.3267853E-3,7.0507745E-3],"split_indices":[0,0,0,0,0,0,0,0,0,0,0,0,0,0,0],"split_type":[0,0,0,0,0,0,0,0,0,0,0,0,0,0,0],"sum_hessian":[8E2,4.65E2,3.35E2,1.22E2,3.43E2,2.84E2,5.1E1,1.3E1,1.09E2,1.96E2,1.47E2,1.46E2,1.38E2,4.6E1,5E0],"tree_param":{"num_deleted":"0","num_feature":"1","num_nodes":"15","size_leaf_vector":"1"}},{"base_weights":[1.035052E-4,-8.67154E-3,1.6748928E-2,-2.019026E-2,-4.653255E-3,1.3584174E-2,3.9502457E-2,-3.5589114E-3,-1.7979579E-3,-9.332629E-4,-3.0901167E-5,1.0189373E-3,1.8702735E-3,3.4062888E-3,6.409819E-3],"categories":[],"categories_nodes":[],"categories_segments":[],"categories_sizes":[],"default_left":[0,0,0,0,0,0,0,0,0,0,0,0,0,0,0],"id":50,"left_children":[1,3,5,7,9,11,13,-1,-1,-1,-1,-1,-1,-1,-1],"loss_changes":[1.1699713E-1,2.4229765E-2,1.9642279E-2,4.292745E-3,7.916446E-3,4.1358955E-3,3.3902824E-3,0E0,0E0,0E0,0E0,0E0,0E0,0E0,0E0],"parents":[2147483647,0,0,1,1,2,2,3,3,4,4,5,5,6,6],"right_children":[2,4,6,8,10,12,14,-1,-1,-1,-1,-1,-1,-1,-1],"split_conditions":[3.22364E5,8.3144E4,4.74135E5,8.364E3,2.00217E5,4.10723E5,4.94968E5,-3.5589114E-3,-1.7979579E-3,-9.332629E-4,-3.0901167E-5,1.0189373E-3,1.8702735E-3,3.4062888E-3,6.409819E-3],"split_indices":[0,0,0,0,0,0,0,0,0,0,0,0,0,0,0],"split_type":[0,0,0,0,0,0,0,0,0,0,0,0,0,0,0],"sum_hessian":[8E2,5.24E2,2.76E2,1.35E2,3.89E2,2.43E2,3.3E1,1.6E1,1.19E2,1.87E2,2.02E2,1.47E2,9.6E1,2.8E1,5E0],"tree_param":{"num_deleted":"0","num_feature":"1","num_nodes":"15","size_leaf_vector":"1"}},{"base_weights":[9.7163815E-5,-1.05951065E-2,1.1280909E-2,-2.059271E-2,-7.458902E-3,7.8970315E-3,2.837516E-2,-3.400227E-3,-1.8328505E-3,-9.831366E-4,-4.5195475E-4,3.7345113E-4,1.2840587E-3,2.4521963E-3,5.231846E-3],"categories":[],"categories_nodes":[],"categories_segments":[],"categories_sizes":[],"default_left":[0,0,0,0,0,0,0,0,0,0,0,0,0,0,0],"id":51,"left_children":[1,3,5,7,9,11,13,-1,-1,-1,-1,-1,-1,-1,-1],"loss_changes":[9.578325E-2,1.2762886E-2,2.2534214E-2,2.6486889E-3,2.1570064E-3,6.7152046E-3,5.309183E-3,0E0,0E0,0E0,0E0,0E0,0E0,0E0,0E0],"parents":[2147483647,0,0,1,1,2,2,3,3,4,4,5,5,6,6],"right_children":[2,4,6,8,10,12,14,-1,-1,-1,-1,-1,-1,-1,-1],"split_conditions":[2.50248E5,5.5206E4,4.55314E5,5.033E3,1.57606E5,3.62017E5,4.9293E5,-3.400227E-3,-1.8328505E-3,-9.831366E-4,-4.5195475E-4,3.7345113E-4,1.2840587E-3,2.4521963E-3,5.231846E-3],"split_indices":[0,0,0,0,0,0,0,0,0,0,0,0,0,0,0],"split_type":[0,0,0,0,0,0,0,0,0,0,0,0,0,0,0],"sum_hessian":[8E2,4.09E2,3.91E2,9.7E1,3.12E2,3.27E2,6.4E1,1.3E1,8.4E1,1.72E2,1.4E2,1.78E2,1.49E2,5.6E1,8E0],"tree_param":{"num_deleted":"0","num_feature":"1","num_nodes":"15","size_leaf_vector":"1"}},{"base_weights":[8.912665E-5,-9.109698E-3,1.0670743E-2,-1.8759638E-2,-6.3698655E-3,7.890459E-3,2.7923668E-2,-3.0727978E-3,-1.6662062E-3,-8.4581925E-4,-2.721257E-4,4.0700828E-4,1.2383413E-3,2.459648E-3,5.3515E-3],"categories":[],"categories_nodes":[],"categories_segments":[],"categories_sizes":[],"default_left":[0,0,0,0,0,0,0,0,0,0,0,0,0,0,0],"id":52,"left_children":[1,3,5,7,9,11,13,-1,-1,-1,-1,-1,-1,-1,-1],"loss_changes":[7.796802E-2,1.1269461E-2,1.7757919E-2,2.1163784E-3,2.5372123E-3,5.493274E-3,3.7269369E-3,0E0,0E0,0E0,0E0,0E0,0E0,0E0,0E0],"parents":[2147483647,0,0,1,1,2,2,3,3,4,4,5,5,6,6],"right_children":[2,4,6,8,10,12,14,-1,-1,-1,-1,-1,-1,-1,-1],"split_conditions":[2.61118E5,5.3209E4,4.62649E5,5.033E3,1.90104E5,3.68806E5,4.94968E5,-3.0727978E-3,-1.6662062E-3,-8.4581925E-4,-2.721257E-4,4.0700828E-4,1.2383413E-3,2.459648E-3,5.3515E-3],"split_indices":[0,0,0,0,0,0,0,0,0,0,0,0,0,0,0],"split_type":[0,0,0,0,0,0,0,0,0,0,0,0,0,0,0],"sum_hessian":[8E2,4.28E2,3.72E2,9.4E1,3.34E2,3.21E2,5.1E1,1.3E1,8.1E1,2.12E2,1.22E2,1.74E2,1.47E2,4.6E1,5E0],"tree_param":{"num_deleted":"0","num_feature":"1","num_nodes":"15","size_leaf_vector":"1"}},{"base_weights":[8.2423176E-5,-6.407261E-3,1.2392724E-2,-1.4149794E-2,-3.1103538E-3,1.0248729E-2,3.242572E-2,-2.5524735E-3,-1.2485168E-3,-5.595474E-4,9.4235074E-5,7.672207E-4,1.4461442E-3,2.7521134E-3,4.8650396E-3],"categories":[],"categories_nodes":[],"categories_segments":[],"categories_sizes":[],"default_left":[0,0,0,0,0,0,0,0,0,0,0,0,0,0,0],"id":53,"left_children":[1,3,5,7,9,11,13,-1,-1,-1,-1,-1,-1,-1,-1],"loss_changes":[6.399161E-2,1.3366599E-2,1.1709686E-2,2.8039925E-3,3.713968E-3,2.6634894E-3,1.4392901E-3,0E0,0E0,0E0,0E0,0E0,0E0,0E0,0E0],"parents":[2147483647,0,0,1,1,2,2,3,3,4,4,5,5,6,6],"right_children":[2,4,6,8,10,12,14,-1,-1,-1,-1,-1,-1,-1,-1],"split_conditions":[3.22364E5,9.9313E4,4.8314E5,9.965E3,2.34711E5,4.18403E5,4.94968E5,-2.5524735E-3,-1.2485168E-3,-5.595474E-4,9.4235074E-5,7.672207E-4,1.4461442E-3,2.7521134E-3,4.8650396E-3],"split_indices":[0,0,0,0,0,0,0,0,0,0,0,0,0,0,0],"split_type":[0,0,0,0,0,0,0,0,0,0,0,0,0,0,0],"sum_hessian":[8E2,5.24E2,2.76E2,1.56E2,3.68E2,2.5E2,2.6E1,1.9E1,1.37E2,2.28E2,1.4E2,1.56E2,9.4E1,2.1E1,5E0],"tree_param":{"num_deleted":"0","num_feature":"1","num_nodes":"15","size_leaf_vector":"1"}},{"base_weights":[7.764577E-5,-5.770592E-3,1.1171179E-2,-1.4075393E-2,-3.2358754E-3,9.228229E-3,2.9326782E-2,-2.5311052E-3,-1.2625904E-3,-5.873052E-4,2.2666161E-5,6.1385526E-4,1.2137733E-3,2.4832839E-3,4.4227946E-3],"categories":[],"categories_nodes":[],"categories_segments":[],"categories_sizes":[],"default_left":[0,0,0,0,0,0,0,0,0,0,0,0,0,0,0],"id":54,"left_children":[1,3,5,7,9,11,13,-1,-1,-1,-1,-1,-1,-1,-1],"loss_changes":[5.1966768E-2,1.1018118E-2,9.618342E-3,1.8352456E-3,3.676022E-3,2.2145957E-3,1.2254212E-3,0E0,0E0,0E0,0E0,0E0,0E0,0E0,0E0],"parents":[2147483647,0,0,1,1,2,2,3,3,4,4,5,5,6,6],"right_children":[2,4,6,8,10,12,14,-1,-1,-1,-1,-1,-1,-1,-1],"split_conditions":[3.22364E5,7.737E4,4.8314E5,5.033E3,2.17043E5,3.96691E5,4.94968E5,-2.5311052E-3,-1.2625904E-3,-5.873052E-4,2.2666161E-5,6.1385526E-4,1.2137733E-3,2.4832839E-3,4.4227946E-3],"split_indices":[0,0,0,0,0,0,0,0,0,0,0,0,0,0,0],"split_type":[0,0,0,0,0,0,0,0,0,0,0,0,0,0,0],"sum_hessian":[8E2,5.24E2,2.76E2,1.22E2,4.02E2,2.5E2,2.6E1,1.3E1,1.09E2,2.28E2,1.74E2,1.22E2,1.28E2,2.1E1,5E0],"tree_param":{"num_deleted":"0","num_feature":"1","num_nodes":"15","size_leaf_vector":"1"}},{"base_weights":[7.266391E-5,-5.8477125E-3,8.9948075E-3,-1.3818837E-2,-3.8188219E-3,7.161351E-3,2.4540717E-2,-2.4361059E-3,-1.2474805E-3,-6.0472783E-4,-8.829234E-5,4.2375605E-4,1.0184515E-3,2.1086878E-3,4.020691E-3],"categories":[],"categories_nodes":[],"categories_segments":[],"categories_sizes":[],"default_left":[0,0,0,0,0,0,0,0,0,0,0,0,0,0,0],"id":55,"left_children":[1,3,5,7,9,11,13,-1,-1,-1,-1,-1,-1,-1,-1],"loss_changes":[4.231067E-2,7.7606924E-3,9.018756E-3,1.2295339E-3,2.51293E-3,2.5108233E-3,1.3887156E-3,0E0,0E0,0E0,0E0,0E0,0E0,0E0,0E0],"parents":[2147483647,0,0,1,1,2,2,3,3,4,4,5,5,6,6],"right_children":[2,4,6,8,10,12,14,-1,-1,-1,-1,-1,-1,-1,-1],"split_conditions":[3.00082E5,5.5206E4,4.74135E5,4.036E3,1.96241E5,3.83875E5,4.94968E5,-2.4361059E-3,-1.2474805E-3,-6.0472783E-4,-8.829234E-5,4.2375605E-4,1.0184515E-3,2.1086878E-3,4.020691E-3],"split_indices":[0,0,0,0,0,0,0,0,0,0,0,0,0,0,0],"split_type":[0,0,0,0,0,0,0,0,0,0,0,0,0,0,0],"sum_hessian":[8E2,4.81E2,3.19E2,9.7E1,3.84E2,2.86E2,3.3E1,1E1,8.7E1,2.18E2,1.66E2,1.46E2,1.4E2,2.8E1,5E0],"tree_param":{"num_deleted":"0","num_feature":"1","num_nodes":"15","size_leaf_vector":"1"}},{"base_weights":[6.734599E-5,-6.361493E-3,6.7916773E-3,-1.2928628E-2,-4.5438497E-3,4.198913E-3,1.551699E-2,-2.204096E-3,-1.1627433E-3,-6.510158E-4,-3.0092042E-4,1.6031432E-4,6.5211294E-4,1.2562567E-3,2.7313398E-3],"categories":[],"categories_nodes":[],"categories_segments":[],"categories_sizes":[],"default_left":[0,0,0,0,0,0,0,0,0,0,0,0,0,0,0],"id":56,"left_children":[1,3,5,7,9,11,13,-1,-1,-1,-1,-1,-1,-1,-1],"loss_changes":[3.4626927E-2,4.85871E-3,8.824203E-3,9.211991E-4,9.6035795E-4,1.8182253E-3,2.9476527E-3,0E0,0E0,0E0,0E0,0E0,0E0,0E0,0E0],"parents":[2147483647,0,0,1,1,2,2,3,3,4,4,5,5,6,6],"right_children":[2,4,6,8,10,12,14,-1,-1,-1,-1,-1,-1,-1,-1],"split_conditions":[2.50248E5,4.9314E4,4.37692E5,4.036E3,1.34865E5,3.36008E5,4.88283E5,-2.204096E-3,-1.1627433E-3,-6.510158E-4,-3.0092042E-4,1.6031432E-4,6.5211294E-4,1.2562567E-3,2.7313398E-3],"split_indices":[0,0,0,0,0,0,0,0,0,0,0,0,0,0,0],"split_type":[0,0,0,0,0,0,0,0,0,0,0,0,0,0,0],"sum_hessian":[8E2,4.09E2,3.91E2,8.8E1,3.21E2,3.02E2,8.9E1,1E1,7.8E1,1.4E2,1.81E2,1.43E2,1.59E2,7.2E1,1.7E1],"tree_param":{"num_deleted":"0","num_feature":"1","num_nodes":"15","size_leaf_vector":"1"}},{"base_weights":[6.086193E-5,-4.20934E-3,8.296698E-3,-8.710089E-3,-1.5781547E-3,6.8217227E-3,2.1915868E-2,-1.4092013E-3,-6.7990704E-4,-3.2392418E-4,8.01428E-5,5.304361E-4,1.0243366E-3,1.8297328E-3,3.4068716E-3],"categories":[],"categories_nodes":[],"categories_segments":[],"categories_sizes":[],"default_left":[0,0,0,0,0,0,0,0,0,0,0,0,0,0,0],"id":57,"left_children":[1,3,5,7,9,11,13,-1,-1,-1,-1,-1,-1,-1,-1],"loss_changes":[2.8169993E-2,6.2399423E-3,5.419297E-3,1.9525178E-3,1.3195213E-3,1.25782E-3,8.536689E-4,0E0,0E0,0E0,0E0,0E0,0E0,0E0,0E0],"parents":[2147483647,0,0,1,1,2,2,3,3,4,4,5,5,6,6],"right_children":[2,4,6,8,10,12,14,-1,-1,-1,-1,-1,-1,-1,-1],"split_conditions":[3.24061E5,1.18523E5,4.8314E5,2.6836E4,2.39063E5,4.30326E5,4.94968E5,-1.4092013E-3,-6.7990704E-4,-3.2392418E-4,8.01428E-5,5.304361E-4,1.0243366E-3,1.8297328E-3,3.4068716E-3],"split_indices":[0,0,0,0,0,0,0,0,0,0,0,0,0,0,0],"split_type":[0,0,0,0,0,0,0,0,0,0,0,0,0,0,0],"sum_hessian":[8E2,5.27E2,2.73E2,1.94E2,3.33E2,2.47E2,2.6E1,5E1,1.44E2,1.96E2,1.37E2,1.72E2,7.5E1,2.1E1,5E0],"tree_param":{"num_deleted":"0","num_feature":"1","num_nodes":"15","size_leaf_vector":"1"}},{"base_weights":[5.7617122E-5,-4.9280063E-3,5.7926797E-3,-1.2247925E-2,-3.788412E-3,4.1996175E-3,1.568148E-2,-2.0331668E-3,-1.0926103E-3,-5.6638586E-4,-2.1747801E-4,4.5178883E-4,-2.5362968E-3,1.3145447E-3,2.7737562E-3],"categories":[],"categories_nodes":[],"categories_segments":[],"categories_sizes":[],"default_left":[0,0,0,0,0,0,0,0,0,0,0,0,0,0,0],"id":58,"left_children":[1,3,5,7,9,11,13,-1,-1,-1,-1,-1,-1,-1,-1],"loss_changes":[2.290286E-2,3.5512336E-3,5.8352407E-3,5.033305E-4,1.118104E-3,3.0822577E-3,1.3922825E-3,0E0,0E0,0E0,0E0,0E0,0E0,0E0,0E0],"parents":[2147483647,0,0,1,1,2,2,3,3,4,4,5,5,6,6],"right_children":[2,4,6,8,10,12,14,-1,-1,-1,-1,-1,-1,-1,-1],"split_conditions":[2.61118E5,3.5528E4,4.62649E5,3.367E3,1.34865E5,4.6055E5,4.9293E5,-2.0331668E-3,-1.0926103E-3,-5.6638586E-4,-2.1747801E-4,4.5178883E-4,-2.5362968E-3,1.3145447E-3,2.7737562E-3],"split_indices":[0,0,0,0,0,0,0,0,0,0,0,0,0,0,0],"split_type":[0,0,0,0,0,0,0,0,0,0,0,0,0,0,0],"sum_hessian":[8E2,4.28E2,3.72E2,5.7E1,3.71E2,3.21E2,5.1E1,7E0,5E1,1.71E2,2E2,3.18E2,3E0,4.3E1,8E0],"tree_param":{"num_deleted":"0","num_feature":"1","num_nodes":"15","size_leaf_vector":"1"}},{"base_weights":[5.0730403E-5,-3.4106108E-3,6.9927997E-3,-7.5128586E-3,-1.5035347E-3,5.755163E-3,1.8093001E-2,-1.3320546E-3,-6.2667154E-4,-3.0013925E-4,2.9571063E-5,4.2988878E-4,8.370054E-4,1.5022588E-3,2.8450706E-3],"categories":[],"categories_nodes":[],"categories_segments":[],"categories_sizes":[],"default_left":[0,0,0,0,0,0,0,0,0,0,0,0,0,0,0],"id":59,"left_children":[1,3,5,7,9,11,13,-1,-1,-1,-1,-1,-1,-1,-1],"loss_changes":[1.9247036E-2,4.175905E-3,3.6091171E-3,1.1849692E-3,9.854712E-4,8.9783315E-4,6.2906276E-4,0E0,0E0,0E0,0E0,0E0,0E0,0E0,0E0],"parents":[2147483647,0,0,1,1,2,2,3,3,4,4,5,5,6,6],"right_children":[2,4,6,8,10,12,14,-1,-1,-1,-1,-1,-1,-1,-1],"split_conditions":[3.28728E5,1.04642E5,4.8314E5,1.521E4,2.25667E5,4.25641E5,4.94968E5,-1.3320546E-3,-6.2667154E-4,-3.0013925E-4,2.9571063E-5,4.2988878E-4,8.370054E-4,1.5022588E-3,2.8450706E-3],"split_indices":[0,0,0,0,0,0,0,0,0,0,0,0,0,0,0],"split_type":[0,0,0,0,0,0,0,0,0,0,0,0,0,0,0],"sum_hessian":[8E2,5.34E2,2.66E2,1.69E2,3.65E2,2.4E2,2.6E1,2.9E1,1.4E2,1.99E2,1.66E2,1.55E2,8.5E1,2.1E1,5E0],"tree_param":{"num_deleted":"0","num_feature":"1","num_nodes":"15","size_leaf_vector":"1"}},{"base_weights":[4.7763628E-5,-3.1349072E-3,6.1861E-3,-7.7455216E-3,-1.7381927E-3,4.926259E-3,1.5138298E-2,-1.3396618E-3,-6.643405E-4,-3.3686883E-4,-1.4313932E-5,3.1661708E-4,6.6371023E-4,1.2802744E-3,2.5864514E-3],"categories":[],"categories_nodes":[],"categories_segments":[],"categories_sizes":[],"default_left":[0,0,0,0,0,0,0,0,0,0,0,0,0,0,0],"id":60,"left_children":[1,3,5,7,9,11,13,-1,-1,-1,-1,-1,-1,-1,-1],"loss_changes":[1.5648508E-2,3.3902158E-3,3.0473396E-3,7.184511E-4,1.0543542E-3,7.136953E-4,6.736624E-4,0E0,0E0,0E0,0E0,0E0,0E0,0E0,0E0],"parents":[2147483647,0,0,1,1,2,2,3,3,4,4,5,5,6,6],"right_children":[2,4,6,8,10,12,14,-1,-1,-1,-1,-1,-1,-1,-1],"split_conditions":[3.24061E5,7.737E4,4.74135E5,9.965E3,2.00217E5,3.96691E5,4.94968E5,-1.3396618E-3,-6.643405E-4,-3.3686883E-4,-1.4313932E-5,3.1661708E-4,6.6371023E-4,1.2802744E-3,2.5864514E-3],"split_indices":[0,0,0,0,0,0,0,0,0,0,0,0,0,0,0],"split_type":[0,0,0,0,0,0,0,0,0,0,0,0,0,0,0],"sum_hessian":[8E2,5.27E2,2.73E2,1.22E2,4.05E2,2.4E2,3.3E1,1.9E1,1.03E2,2E2,2.05E2,1.19E2,1.21E2,2.8E1,5E0],"tree_param":{"num_deleted":"0","num_feature":"1","num_nodes":"15","size_leaf_vector":"1"}},{"base_weights":[4.45472E-5,-2.7685803E-3,5.6865523E-3,-7.930335E-3,-1.7423776E-3,4.663533E-3,1.4863644E-2,-1.5940445E-3,-7.144555E-4,-3.300119E-4,-1.2389294E-5,3.5550818E-4,7.062432E-4,1.2305282E-3,2.3513276E-3],"categories":[],"categories_nodes":[],"categories_segments":[],"categories_sizes":[],"default_left":[0,0,0,0,0,0,0,0,0,0,0,0,0,0,0],"id":61,"left_children":[1,3,5,7,9,11,13,-1,-1,-1,-1,-1,-1,-1,-1],"loss_changes":[1.2713151E-2,2.824341E-3,2.4673352E-3,5.0009135E-4,1.1255027E-3,6.269505E-4,4.417468E-4,0E0,0E0,0E0,0E0,0E0,0E0,0E0,0E0],"parents":[2147483647,0,0,1,1,2,2,3,3,4,4,5,5,6,6],"right_children":[2,4,6,8,10,12,14,-1,-1,-1,-1,-1,-1,-1,-1],"split_conditions":[3.28728E5,4.9314E4,4.8314E5,3.367E3,1.96241E5,4.30326E5,4.94968E5,-1.5940445E-3,-7.144555E-4,-3.300119E-4,-1.2389294E-5,3.5550818E-4,7.062432E-4,1.2305282E-3,2.3513276E-3],"split_indices":[0,0,0,0,0,0,0,0,0,0,0,0,0,0,0],"split_type":[0,0,0,0,0,0,0,0,0,0,0,0,0,0,0],"sum_hessian":[8E2,5.34E2,2.66E2,8.8E1,4.46E2,2.4E2,2.6E1,7E0,8.1E1,2.27E2,2.19E2,1.65E2,7.5E1,2.1E1,5E0],"tree_param":{"num_deleted":"0","num_feature":"1","num_nodes":"15","size_leaf_vector":"1"}},{"base_weights":[4.1295352E-5,-2.7085799E-3,4.745327E-3,-7.150345E-3,-1.7637883E-3,3.7578074E-3,1.2412527E-2,-1.4452671E-3,-6.434485E-4,-3.0333505E-4,-3.688951E-5,2.0634399E-4,5.22173E-4,1.0465103E-3,2.137531E-3],"categories":[],"categories_nodes":[],"categories_segments":[],"categories_sizes":[],"default_left":[0,0,0,0,0,0,0,0,0,0,0,0,0,0,0],"id":62,"left_children":[1,3,5,7,9,11,13,-1,-1,-1,-1,-1,-1,-1,-1],"loss_changes":[1.0361293E-2,2.1150464E-3,2.2140597E-3,4.1613076E-4,7.387928E-4,6.457234E-4,4.7287298E-4,0E0,0E0,0E0,0E0,0E0,0E0,0E0,0E0],"parents":[2147483647,0,0,1,1,2,2,3,3,4,4,5,5,6,6],"right_children":[2,4,6,8,10,12,14,-1,-1,-1,-1,-1,-1,-1,-1],"split_conditions":[3.16216E5,4.9314E4,4.74135E5,3.367E3,1.90104E5,3.83875E5,4.94968E5,-1.4452671E-3,-6.434485E-4,-3.0333505E-4,-3.688951E-5,2.0634399E-4,5.22173E-4,1.0465103E-3,2.137531E-3],"split_indices":[0,0,0,0,0,0,0,0,0,0,0,0,0,0,0],"split_type":[0,0,0,0,0,0,0,0,0,0,0,0,0,0,0],"sum_hessian":[8E2,5.05E2,2.95E2,8.8E1,4.17E2,2.62E2,3.3E1,7E0,8.1E1,2.18E2,1.99E2,1.22E2,1.4E2,2.8E1,5E0],"tree_param":{"num_deleted":"0","num_feature":"1","num_nodes":"15","size_leaf_vector":"1"}},{"base_weights":[3.8103255E-5,-3.1419375E-3,3.364304E-3,-7.832596E-3,-2.4336032E-3,2.2390387E-3,9.051781E-3,-1.3103754E-3,-6.898188E-4,-3.5582567E-4,-1.6080479E-4,8.0119855E-5,3.5934366E-4,1.6794887E-3,7.476947E-4],"categories":[],"categories_nodes":[],"categories_segments":[],"categories_sizes":[],"default_left":[0,0,0,0,0,0,0,0,0,0,0,0,0,0,0],"id":63,"left_children":[1,3,5,7,9,11,13,-1,-1,-1,-1,-1,-1,-1,-1],"loss_changes":[8.472537E-3,1.3510557E-3,2.495435E-3,2.1831365E-4,3.281366E-4,6.363364E-4,7.2373264E-4,0E0,0E0,0E0,0E0,0E0,0E0,0E0,0E0],"parents":[2147483647,0,0,1,1,2,2,3,3,4,4,5,5,6,6],"right_children":[2,4,6,8,10,12,14,-1,-1,-1,-1,-1,-1,-1,-1],"split_conditions":[2.50248E5,2.9604E4,4.55314E5,3.367E3,1.24809E5,3.46902E5,4.6055E5,-1.3103754E-3,-6.898188E-4,-3.5582567E-4,-1.6080479E-4,8.0119855E-5,3.5934366E-4,1.6794887E-3,7.476947E-4],"split_indices":[0,0,0,0,0,0,0,0,0,0,0,0,0,0,0],"split_type":[0,0,0,0,0,0,0,0,0,0,0,0,0,0,0],"sum_hessian":[8E2,4.09E2,3.91E2,5.3E1,3.56E2,3.27E2,6.4E1,7E0,4.6E1,1.5E2,2.06E2,1.59E2,1.68E2,1E1,5.4E1],"tree_param":{"num_deleted":"0","num_feature":"1","num_nodes":"15","size_leaf_vector":"1"}},{"base_weights":[3.446369E-5,-1.9308758E-3,4.404012E-3,-4.254892E-3,-6.062497E-4,3.7099929E-3,1.345907E-2,-7.3297083E-4,-3.2895422E-4,-4.3653894E-5,-9.6065085E-4,7.9645024E-4,3.1050373E-4,2.0826885E-3,1.1216525E-3],"categories":[],"categories_nodes":[],"categories_segments":[],"categories_sizes":[],"default_left":[0,0,0,0,0,0,0,0,0,0,0,0,0,0,0],"id":64,"left_children":[1,3,5,7,9,11,13,-1,-1,-1,-1,-1,-1,-1,-1],"loss_changes":[6.8786624E-3,1.6995552E-3,1.5367032E-3,5.8308314E-4,5.363262E-4,5.834673E-4,1.7234357E-4,0E0,0E0,0E0,0E0,0E0,0E0,0E0,0E0],"parents":[2147483647,0,0,1,1,2,2,3,3,4,4,5,5,6,6],"right_children":[2,4,6,8,10,12,14,-1,-1,-1,-1,-1,-1,-1,-1],"split_conditions":[3.36008E5,1.23355E5,4.88283E5,2.5604E4,3.34834E5,3.5508E5,4.91246E5,-7.3297083E-4,-3.2895422E-4,-4.3653894E-5,-9.6065085E-4,7.9645024E-4,3.1050373E-4,2.0826885E-3,1.1216525E-3],"split_indices":[0,0,0,0,0,0,0,0,0,0,0,0,0,0,0],"split_type":[0,0,0,0,0,0,0,0,0,0,0,0,0,0,0],"sum_hessian":[8E2,5.52E2,2.48E2,2E2,3.52E2,2.31E2,1.7E1,4.7E1,1.53E2,3.46E2,6E0,2.8E1,2.03E2,3E0,1.4E1],"tree_param":{"num_deleted":"0","num_feature":"1","num_nodes":"15","size_leaf_vector":"1"}},{"base_weights":[3.2453452E-5,-2.6015404E-3,2.787509E-3,-6.2483656E-3,-2.002978E-3,1.7829045E-3,7.3490213E-3,-1.2988078E-3,-5.6230783E-4,-2.6156256E-4,-1.06924796E-4,9.036936E-5,3.265321E-4,6.1480334E-4,1.5747519E-3],"categories":[],"categories_nodes":[],"categories_segments":[],"categories_sizes":[],"default_left":[0,0,0,0,0,0,0,0,0,0,0,0,0,0,0],"id":65,"left_children":[1,3,5,7,9,11,13,-1,-1,-1,-1,-1,-1,-1,-1],"loss_changes":[5.8126934E-3,8.8762003E-4,1.7875035E-3,2.058032E-4,2.0024856E-4,4.1755394E-4,6.6269E-4,0E0,0E0,0E0,0E0,0E0,0E0,0E0,0E0],"parents":[2147483647,0,0,1,1,2,2,3,3,4,4,5,5,6,6],"right_children":[2,4,6,8,10,12,14,-1,-1,-1,-1,-1,-1,-1,-1],"split_conditions":[2.50248E5,3.5528E4,4.50851E5,2.251E3,1.57606E5,3.72328E5,4.9293E5,-1.2988078E-3,-5.6230783E-4,-2.6156256E-4,-1.06924796E-4,9.036936E-5,3.265321E-4,6.1480334E-4,1.5747519E-3],"split_indices":[0,0,0,0,0,0,0,0,0,0,0,0,0,0,0],"split_type":[0,0,0,0,0,0,0,0,0,0,0,0,0,0,0],"sum_hessian":[8E2,4.09E2,3.91E2,5.7E1,3.52E2,3.21E2,7E1,4E0,5.3E1,2.12E2,1.4E2,2.02E2,1.19E2,6.2E1,8E0],"tree_param":{"num_deleted":"0","num_feature":"1","num_nodes":"15","size_leaf_vector":"1"}},{"base_weights":[2.9383498E-5,-2.3441436E-3,2.5120007E-3,-5.639711E-3,-1.8032436E-3,1.751175E-3,7.517926E-3,-1.1833583E-3,-5.066024E-4,5.56437E-4,-1.8744454E-4,2.0463455E-4,-2.6961872E-3,6.3981395E-4,1.6301762E-3],"categories":[],"categories_nodes":[],"categories_segments":[],"categories_sizes":[],"default_left":[0,0,0,0,0,0,0,0,0,0,0,0,0,0,0],"id":66,"left_children":[1,3,5,7,9,11,13,-1,-1,-1,-1,-1,-1,-1,-1],"loss_changes":[4.719937E-3,7.2487816E-4,1.4844986E-3,1.7434277E-4,1.9013218E-4,2.913408E-3,4.544044E-4,0E0,0E0,0E0,0E0,0E0,0E0,0E0,0E0],"parents":[2147483647,0,0,1,1,2,2,3,3,4,4,5,5,6,6],"right_children":[2,4,6,8,10,12,14,-1,-1,-1,-1,-1,-1,-1,-1],"split_conditions":[2.50248E5,3.5528E4,4.62649E5,2.251E3,3.6206E4,4.6055E5,4.94968E5,-1.1833583E-3,-5.066024E-4,5.56437E-4,-1.8744454E-4,2.0463455E-4,-2.6961872E-3,6.3981395E-4,1.6301762E-3],"split_indices":[0,0,0,0,0,0,0,0,0,0,0,0,0,0,0],"split_type":[0,0,0,0,0,0,0,0,0,0,0,0,0,0,0],"sum_hessian":[8E2,4.09E2,3.91E2,5.7E1,3.52E2,3.4E2,5.1E1,4E0,5.3E1,3E0,3.49E2,3.37E2,3E0,4.6E1,5E0],"tree_param":{"num_deleted":"0","num_feature":"1","num_nodes":"15","size_leaf_vector":"1"}},{"base_weights":[2.5495896E-5,-1.3790258E-3,3.5879018E-3,-2.8035897E-3,-1.2007478E-4,2.8624607E-2,2.8417225E-3,-6.400822E-4,-2.3565207E-4,1.5865355E-5,-6.6598126E-4,1.7022269E-3,3.6137719E-3,-2.2779084E-3,3.7350957E-4],"categories":[],"categories_nodes":[],"categories_segments":[],"categories_sizes":[],"default_left":[0,0,0,0,0,0,0,0,0,0,0,0,0,0,0],"id":67,"left_children":[1,3,5,7,9,11,13,-1,-1,-1,-1,-1,-1,-1,-1],"loss_changes":[4.0077567E-3,1.0301723E-3,4.190773E-3,4.25871E-4,5.5739685E-4,2.590292E-4,5.089553E-3,0E0,0E0,0E0,0E0,0E0,0E0,0E0,0E0],"parents":[2147483647,0,0,1,1,2,2,3,3,4,4,5,5,6,6],"right_children":[2,4,6,8,10,12,14,-1,-1,-1,-1,-1,-1,-1,-1],"split_conditions":[3.52104E5,1.57606E5,3.5508E5,1.521E4,3.41001E5,3.52319E5,3.62017E5,-6.400822E-4,-2.3565207E-4,1.5865355E-5,-6.6598126E-4,1.7022269E-3,3.6137719E-3,-2.2779084E-3,3.7350957E-4],"split_indices":[0,0,0,0,0,0,0,0,0,0,0,0,0,0,0],"split_type":[0,0,0,0,0,0,0,0,0,0,0,0,0,0,0],"sum_hessian":[8E2,5.74E2,2.26E2,2.69E2,3.05E2,6E0,2.2E2,2.9E1,2.4E2,2.93E2,1.2E1,3E0,3E0,7E0,2.13E2],"tree_param":{"num_deleted":"0","num_feature":"1","num_nodes":"15","size_leaf_vector":"1"}},{"base_weights":[2.4143646E-5,-1.5270093E-3,2.677598E-3,-3.6208443E-3,-8.561924E-4,2.174715E-3,9.370548E-3,-7.495535E-4,-3.1266094E-4,3.0451495E-4,-1.0637316E-4,1.0887337E-3,1.927296E-4,7.255154E-4,1.4480244E-3],"categories":[],"categories_nodes":[],"categories_segments":[],"categories_sizes":[],"default_left":[0,0,0,0,0,0,0,0,0,0,0,0,0,0,0],"id":68,"left_children":[1,3,5,7,9,11,13,-1,-1,-1,-1,-1,-1,-1,-1],"loss_changes":[3.296833E-3,7.084651E-4,9.843963E-4,2.2287073E-4,3.121325E-4,5.8339525E-4,1.690567E-4,0E0,0E0,0E0,0E0,0E0,0E0,0E0,0E0],"parents":[2147483647,0,0,1,1,2,2,3,3,4,4,5,5,6,6],"right_children":[2,4,6,8,10,12,14,-1,-1,-1,-1,-1,-1,-1,-1],"split_conditions":[3.16216E5,7.737E4,4.87074E5,5.033E3,8.8607E4,3.18723E5,4.94968E5,-7.495535E-4,-3.1266094E-4,3.0451495E-4,-1.0637316E-4,1.0887337E-3,1.927296E-4,7.255154E-4,1.4480244E-3],"split_indices":[0,0,0,0,0,0,0,0,0,0,0,0,0,0,0],"split_type":[0,0,0,0,0,0,0,0,0,0,0,0,0,0,0],"sum_hessian":[8E2,5.05E2,2.95E2,1.22E2,3.83E2,2.75E2,2E1,1.3E1,1.09E2,1.9E1,3.64E2,7E0,2.68E2,1.5E1,5E0],"tree_param":{"num_deleted":"0","num_feature":"1","num_nodes":"15","size_leaf_vector":"1"}},{"base_weights":[2.3361059E-5,-1.0166193E-3,3.3792255E-3,-2.4507453E-3,-6.1103274E-5,2.901518E-3,1.0647152E-2,-2.2575025E-4,-8.406718E-4,3.315067E-5,-4.2542047E-4,8.8681263E-4,2.5211016E-4,7.6983526E-4,1.3164174E-3],"categories":[],"categories_nodes":[],"categories_segments":[],"categories_sizes":[],"default_left":[0,0,0,0,0,0,0,0,0,0,0,0,0,0,0],"id":69,"left_children":[1,3,5,7,9,11,13,-1,-1,-1,-1,-1,-1,-1,-1],"loss_changes":[2.7954893E-3,8.378821E-4,6.424864E-4,2.7191825E-4,6.0570333E-4,3.9397983E-4,3.4683966E-5,0E0,0E0,0E0,0E0,0E0,0E0,0E0,0E0],"parents":[2147483647,0,0,1,1,2,2,3,3,4,4,5,5,6,6],"right_children":[2,4,6,8,10,12,14,-1,-1,-1,-1,-1,-1,-1,-1],"split_conditions":[3.72328E5,1.43271E5,4.92389E5,1.40728E5,3.5508E5,3.80564E5,4.94968E5,-2.2575025E-4,-8.406718E-4,3.315067E-5,-4.2542047E-4,8.8681263E-4,2.5211016E-4,7.6983526E-4,1.3164174E-3],"split_indices":[0,0,0,0,0,0,0,0,0,0,0,0,0,0,0],"split_type":[0,0,0,0,0,0,0,0,0,0,0,0,0,0,0],"sum_hessian":[8E2,6.11E2,1.89E2,2.44E2,3.67E2,1.78E2,1.1E1,2.37E2,7E0,3.36E2,3.1E1,1E1,1.68E2,6E0,5E0],"tree_param":{"num_deleted":"0","num_feature":"1","num_nodes":"15","size_leaf_vector":"1"}},{"base_weights":[2.208106E-5,-1.0835837E-3,2.7255623E-3,-9.4260235E-4,-1.320054E-2,1.4127388E-2,2.0730197E-3,-1.0886231E-4,1.7284922E-3,-2.4699213E-3,1.8392291E-5,1.20573786E-4,2.5962316E-3,-2.0435906E-3,2.8588768E-4],"categories":[],"categories_nodes":[],"categories_segments":[],"categories_sizes":[],"default_left":[0,0,0,0,0,0,0,0,0,0,0,0,0,0,0],"id":70,"left_children":[1,3,5,7,9,11,13,-1,-1,-1,-1,-1,-1,-1,-1],"loss_changes":[2.3942864E-3,9.6492725E-4,1.7151972E-3,1.5065563E-3,1.0026447E-3,1.8959334E-3,3.9295903E-3,0E0,0E0,0E0,0E0,0E0,0E0,0E0,0E0],"parents":[2147483647,0,0,1,1,2,2,3,3,4,4,5,5,6,6],"right_children":[2,4,6,8,10,12,14,-1,-1,-1,-1,-1,-1,-1,-1],"split_conditions":[3.46902E5,3.41001E5,3.5508E5,3.39172E5,3.45395E5,3.52104E5,3.62017E5,-1.0886231E-4,1.7284922E-3,-2.4699213E-3,1.8392291E-5,1.20573786E-4,2.5962316E-3,-2.0435906E-3,2.8588768E-4],"split_indices":[0,0,0,0,0,0,0,0,0,0,0,0,0,0,0],"split_type":[0,0,0,0,0,0,0,0,0,0,0,0,0,0,0],"sum_hessian":[8E2,5.68E2,2.32E2,5.62E2,6E0,1.2E1,2.2E2,5.58E2,4E0,3E0,3E0,6E0,6E0,7E0,2.13E2],"tree_param":{"num_deleted":"0","num_feature":"1","num_nodes":"15","size_leaf_vector":"1"}},{"base_weights":[1.9898423E-5,-1.5304652E-3,1.6415177E-3,-4.1098003E-3,-1.1660099E-3,9.907417E-4,4.9331207E-3,-9.249043E-4,-3.5682626E-4,-2.0036486E-4,-8.393599E-5,1.2489692E-4,-2.5374308E-4,1.3067836E-3,3.320624E-4],"categories":[],"categories_nodes":[],"categories_segments":[],"categories_sizes":[],"default_left":[0,0,0,0,0,0,0,0,0,0,0,0,0,0,0],"id":71,"left_children":[1,3,5,7,9,11,13,-1,-1,-1,-1,-1,-1,-1,-1],"loss_changes":[2.0137927E-3,3.825553E-4,8.3618704E-4,1.2404472E-4,9.752362E-5,2.9996043E-4,8.2436274E-4,0E0,0E0,0E0,0E0,0E0,0E0,0E0,0E0],"parents":[2147483647,0,0,1,1,2,2,3,3,4,4,5,5,6,6],"right_children":[2,4,6,8,10,12,14,-1,-1,-1,-1,-1,-1,-1,-1],"split_conditions":[2.50248E5,2.6836E4,4.55314E5,2.251E3,9.2154E4,4.3919E5,4.6055E5,-9.249043E-4,-3.5682626E-4,-2.0036486E-4,-8.393599E-5,1.2489692E-4,-2.5374308E-4,1.3067836E-3,3.320624E-4],"split_indices":[0,0,0,0,0,0,0,0,0,0,0,0,0,0,0],"split_type":[0,0,0,0,0,0,0,0,0,0,0,0,0,0,0],"sum_hessian":[8E2,4.09E2,3.91E2,5E1,3.59E2,3.27E2,6.4E1,4E0,4.6E1,1E2,2.59E2,3.05E2,2.2E1,1E1,5.4E1],"tree_param":{"num_deleted":"0","num_feature":"1","num_nodes":"15","size_leaf_vector":"1"}},{"base_weights":[1.7865015E-5,-6.9418474E-4,2.997355E-3,-5.585381E-4,-1.4007201E-2,2.499268E-3,9.082297E-3,-7.049824E-5,2.021726E-3,-2.5776864E-3,-2.3651124E-5,2.7470267E-4,-7.803508E-4,6.417495E-4,1.1405945E-3],"categories":[],"categories_nodes":[],"categories_segments":[],"categories_sizes":[],"default_left":[0,0,0,0,0,0,0,0,0,0,0,0,0,0,0],"id":72,"left_children":[1,3,5,7,9,11,13,-1,-1,-1,-1,-1,-1,-1,-1],"loss_changes":[1.6993373E-3,1.163581E-3,4.5691384E-4,1.9558466E-3,1.0504483E-3,3.770165E-4,3.4609926E-5,0E0,0E0,0E0,0E0,0E0,0E0,0E0,0E0],"parents":[2147483647,0,0,1,1,2,2,3,3,4,4,5,5,6,6],"right_children":[2,4,6,8,10,12,14,-1,-1,-1,-1,-1,-1,-1,-1],"split_conditions":[3.96691E5,3.92786E5,4.92389E5,3.90994E5,3.9363E5,4.91246E5,4.94968E5,-7.049824E-5,2.021726E-3,-2.5776864E-3,-2.3651124E-5,2.7470267E-4,-7.803508E-4,6.417495E-4,1.1405945E-3],"split_indices":[0,0,0,0,0,0,0,0,0,0,0,0,0,0,0],"split_type":[0,0,0,0,0,0,0,0,0,0,0,0,0,0,0],"sum_hessian":[8E2,6.46E2,1.54E2,6.4E2,6E0,1.43E2,1.1E1,6.36E2,4E0,3E0,3E0,1.4E2,3E0,6E0,5E0],"tree_param":{"num_deleted":"0","num_feature":"1","num_nodes":"15","size_leaf_vector":"1"}},{"base_weights":[1.6503103E-5,-1.3796402E-3,1.3446047E-3,-1.2529755E-3,-1.5206133E-3,1.652309E-3,1.2125876E-3,-1.3968509E-4,1.4731748E-3,-1.4095851E-3,1.3435473E-4],"categories":[],"categories_nodes":[],"categories_segments":[],"categories_sizes":[],"default_left":[0,0,0,0,0,0,0,0,0,0,0],"id":73,"left_children":[1,3,5,7,-1,-1,9,-1,-1,-1,-1],"loss_changes":[1.4852308E-3,6.74367E-4,8.125505E-4,9.014641E-4,0E0,0E0,8.2642125E-4,0E0,0E0,0E0,0E0],"parents":[2147483647,0,0,1,1,2,2,3,3,6,6],"right_children":[2,4,6,8,-1,-1,10,-1,-1,-1,-1],"split_conditions":[2.39063E5,2.35274E5,2.41349E5,2.34711E5,-1.5206133E-3,1.652309E-3,2.4248E5,-1.3968509E-4,1.4731748E-3,-1.4095851E-3,1.3435473E-4],"split_indices":[0,0,0,0,0,0,0,0,0,0,0],"split_type":[0,0,0,0,0,0,0,0,0,0,0],"sum_hessian":[8E2,3.9E2,4.1E2,3.87E2,3E0,3E0,4.07E2,3.84E2,3E0,3E0,4.04E2],"tree_param":{"num_deleted":"0","num_feature":"1","num_nodes":"11","size_leaf_vector":"1"}},{"base_weights":[1.49237785E-5,-5.389747E-4,2.8870115E-3,-4.5987603E-4,-1.5569823E-3,1.415062E-3,2.563959E-3,-2.2407384E-4,5.748118E-6,-5.903318E-4,3.0100613E-4],"categories":[],"categories_nodes":[],"categories_segments":[],"categories_sizes":[],"default_left":[0,0,0,0,0,0,0,0,0,0,0],"id":74,"left_children":[1,3,5,7,-1,-1,9,-1,-1,-1,-1],"loss_changes":[1.2742495E-3,7.9477974E-4,4.5307563E-4,6.1598147E-4,0E0,0E0,4.8670947E-4,0E0,0E0,0E0,0E0],"parents":[2147483647,0,0,1,1,2,2,3,3,6,6],"right_children":[2,4,6,8,-1,-1,10,-1,-1,-1,-1],"split_conditions":[4.10723E5,4.10054E5,4.13979E5,9.2154E4,-1.5569823E-3,1.415062E-3,4.18403E5,-2.2407384E-4,5.748118E-6,-5.903318E-4,3.0100613E-4],"split_indices":[0,0,0,0,0,0,0,0,0,0,0],"split_type":[0,0,0,0,0,0,0,0,0,0,0],"sum_hessian":[8E2,6.71E2,1.29E2,6.68E2,3E0,3E0,1.26E2,1.5E2,5.18E2,6E0,1.2E2],"tree_param":{"num_deleted":"0","num_feature":"1","num_nodes":"11","size_leaf_vector":"1"}},{"base_weights":[1.3047207E-5,-8.2081323E-4,1.6212916E-3,-2.8428023E-3,-4.980808E-4,1.1762022E-3,5.7476694E-3,-6.7946286E-4,-2.3686024E-4,-3.522575E-5,-5.65197E-4,6.1424397E-4,8.8779154E-5,4.5331466E-4,9.972833E-4],"categories":[],"categories_nodes":[],"categories_segments":[],"categories_sizes":[],"default_left":[0,0,0,0,0,0,0,0,0,0,0,0,0,0,0],"id":75,"left_children":[1,3,5,7,9,11,13,-1,-1,-1,-1,-1,-1,-1,-1],"loss_changes":[1.074177E-3,3.435182E-4,4.989318E-4,1.2781488E-4,3.4133886E-4,3.5177157E-4,1.1338206E-4,0E0,0E0,0E0,0E0,0E0,0E0,0E0,0E0],"parents":[2147483647,0,0,1,1,2,2,3,3,4,4,5,5,6,6],"right_children":[2,4,6,8,10,12,14,-1,-1,-1,-1,-1,-1,-1,-1],"split_conditions":[3.24061E5,4.1856E4,4.8314E5,3.367E3,3.19772E5,3.31777E5,4.94968E5,-6.7946286E-4,-2.3686024E-4,-3.522575E-5,-5.65197E-4,6.1424397E-4,8.8779154E-5,4.5331466E-4,9.972833E-4],"split_indices":[0,0,0,0,0,0,0,0,0,0,0,0,0,0,0],"split_type":[0,0,0,0,0,0,0,0,0,0,0,0,0,0,0],"sum_hessian":[8E2,5.27E2,2.73E2,7.2E1,4.55E2,2.47E2,2.6E1,7E0,6.5E1,4.43E2,1.2E1,1.3E1,2.34E2,2.1E1,5E0],"tree_param":{"num_deleted":"0","num_feature":"1","num_nodes":"15","size_leaf_vector":"1"}},{"base_weights":[1.21755265E-5,-3.6826913E-4,3.0365363E-3,-1.2956733E-3,3.3316982E-4,3.438582E-3,1.750516E-3,-8.659041E-5,-1.136921E-3,4.734796E-5,-8.316114E-4,-2.7425222E-3,2.962969E-4],"categories":[],"categories_nodes":[],"categories_segments":[],"categories_sizes":[],"default_left":[0,0,0,0,0,0,0,0,0,0,0,0,0],"id":76,"left_children":[1,3,5,7,9,-1,11,-1,-1,-1,-1,-1,-1],"loss_changes":[9.21616E-4,4.6305897E-4,3.5781688E-3,1.3220068E-3,4.9407507E-4,0E0,3.1004993E-3,0E0,0E0,0E0,0E0,0E0,0E0],"parents":[2147483647,0,0,1,1,2,2,3,3,4,4,6,6],"right_children":[2,4,6,8,10,-1,12,-1,-1,-1,-1,-1,-1],"split_conditions":[4.37692E5,1.90104E5,4.3919E5,1.78383E5,4.33056E5,3.438582E-3,4.40049E5,-8.659041E-5,-1.136921E-3,4.734796E-5,-8.316114E-4,-2.7425222E-3,2.962969E-4],"split_indices":[0,0,0,0,0,0,0,0,0,0,0,0,0],"split_type":[0,0,0,0,0,0,0,0,0,0,0,0,0],"sum_hessian":[8E2,7.11E2,8.9E1,3.06E2,4.05E2,3E0,8.6E1,2.94E2,1.2E1,3.99E2,6E0,3E0,8.3E1],"tree_param":{"num_deleted":"0","num_feature":"1","num_nodes":"13","size_leaf_vector":"1"}},{"base_weights":[1.0340831E-5,-4.7306682E-4,2.0331102E-3,-3.4494803E-4,-1.3061304E-2,1.533973E-3,5.8968137E-3,-4.7560938E-5,1.8174701E-3,-2.3803983E-3,-4.5272285E-5,2.2464486E-4,-3.9591472E-5,1.5026366E-3,3.4897903E-4],"categories":[],"categories_nodes":[],"categories_segments":[],"categories_sizes":[],"default_left":[0,0,0,0,0,0,0,0,0,0,0,0,0,0,0],"id":77,"left_children":[1,3,5,7,9,11,13,-1,-1,-1,-1,-1,-1,-1,-1],"loss_changes":[7.832275E-4,1.0404156E-3,2.9343332E-4,1.5542053E-3,8.7503635E-4,1.8950686E-4,3.5834388E-4,0E0,0E0,0E0,0E0,0E0,0E0,0E0,0E0],"parents":[2147483647,0,0,1,1,2,2,3,3,4,4,5,5,6,6],"right_children":[2,4,6,8,10,12,14,-1,-1,-1,-1,-1,-1,-1,-1],"split_conditions":[3.96691E5,3.92786E5,4.88283E5,3.90994E5,3.9363E5,4.6055E5,4.91246E5,-4.7560938E-5,1.8174701E-3,-2.3803983E-3,-4.5272285E-5,2.2464486E-4,-3.9591472E-5,1.5026366E-3,3.4897903E-4],"split_indices":[0,0,0,0,0,0,0,0,0,0,0,0,0,0,0],"split_type":[0,0,0,0,0,0,0,0,0,0,0,0,0,0,0],"sum_hessian":[8E2,6.46E2,1.54E2,6.4E2,6E0,1.37E2,1.7E1,6.36E2,4E0,3E0,3E0,1E2,3.7E1,3E0,1.4E1],"tree_param":{"num_deleted":"0","num_feature":"1","num_nodes":"15","size_leaf_vector":"1"}},{"base_weights":[1.01711385E-5,-9.4166544E-4,9.156208E-4,-8.2361157E-4,-1.3877392E-3,1.5132223E-3,7.923916E-4,-9.528732E-5,1.3494355E-3,-1.2862341E-3,9.0956186E-5],"categories":[],"categories_nodes":[],"categories_segments":[],"categories_sizes":[],"default_left":[0,0,0,0,0,0,0,0,0,0,0],"id":78,"left_children":[1,3,5,7,-1,-1,9,-1,-1,-1,-1],"loss_changes":[6.903342E-4,5.9062266E-4,7.1316015E-4,7.235999E-4,0E0,0E0,6.578205E-4,0E0,0E0,0E0,0E0],"parents":[2147483647,0,0,1,1,2,2,3,3,6,6],"right_children":[2,4,6,8,-1,-1,10,-1,-1,-1,-1],"split_conditions":[2.39063E5,2.35274E5,2.41349E5,2.34711E5,-1.3877392E-3,1.5132223E-3,2.4248E5,-9.528732E-5,1.3494355E-3,-1.2862341E-3,9.0956186E-5],"split_indices":[0,0,0,0,0,0,0,0,0,0,0],"split_type":[0,0,0,0,0,0,0,0,0,0,0],"sum_hessian":[8E2,3.9E2,4.1E2,3.87E2,3E0,3E0,4.07E2,3.84E2,3E0,3E0,4.04E2],"tree_param":{"num_deleted":"0","num_feature":"1","num_nodes":"11","size_leaf_vector":"1"}},{"base_weights":[9.251671E-6,-3.2563825E-4,2.317142E-3,-2.0725594E-3,-5.2728454E-5,7.940016E-3,1.2961812E-3,-1.82001E-4,-8.3788467E-4,5.787222E-4,-1.4569268E-5,1.11858375E-4,3.1167984E-3,-2.5345257E-3,2.4051266E-4],"categories":[],"categories_nodes":[],"categories_segments":[],"categories_sizes":[],"default_left":[0,0,0,0,0,0,0,0,0,0,0,0,0,0,0],"id":79,"left_children":[1,3,5,7,9,11,13,-1,-1,-1,-1,-1,-1,-1,-1],"loss_changes":[6.190751E-4,3.3343333E-4,5.775386E-4,1.4288066E-4,3.291515E-4,2.4385122E-3,2.5860267E-3,0E0,0E0,0E0,0E0,0E0,0E0,0E0,0E0],"parents":[2147483647,0,0,1,1,2,2,3,3,4,4,5,5,6,6],"right_children":[2,4,6,8,10,12,14,-1,-1,-1,-1,-1,-1,-1,-1],"split_conditions":[4.30326E5,5.3209E4,4.3919E5,5.1282E4,6.1799E4,4.37692E5,4.40049E5,-1.82001E-4,-8.3788467E-4,5.787222E-4,-1.4569268E-5,1.11858375E-4,3.1167984E-3,-2.5345257E-3,2.4051266E-4],"split_indices":[0,0,0,0,0,0,0,0,0,0,0,0,0,0,0],"split_type":[0,0,0,0,0,0,0,0,0,0,0,0,0,0,0],"sum_hessian":[8E2,6.99E2,1.01E2,9.4E1,6.05E2,1.5E1,8.6E1,9.1E1,3E0,9E0,5.96E2,1.2E1,3E0,3E0,8.3E1],"tree_param":{"num_deleted":"0","num_feature":"1","num_nodes":"15","size_leaf_vector":"1"}},{"base_weights":[8.686569E-6,-2.1647845E-4,2.866476E-3,-1.2271295E-3,2.3258277E-4,2.3368306E-3,1.1473665E-3,-4.6676336E-4,-1.0087519E-4,5.271134E-4,1.3766185E-5,-2.7070593E-3,3.0539522E-4],"categories":[],"categories_nodes":[],"categories_segments":[],"categories_sizes":[],"default_left":[0,0,0,0,0,0,0,0,0,0,0,0,0],"id":80,"left_children":[1,3,5,7,9,-1,11,-1,-1,-1,-1,-1,-1],"loss_changes":[5.154114E-4,3.37122E-4,2.0484203E-3,1.6932446E-4,2.4570397E-4,0E0,2.9734338E-3,0E0,0E0,0E0,0E0,0E0,0E0],"parents":[2147483647,0,0,1,1,2,2,3,3,4,4,6,6],"right_children":[2,4,6,8,10,-1,12,-1,-1,-1,-1,-1,-1],"split_conditions":[4.59549E5,1.34865E5,4.6055E5,5.033E3,1.40728E5,2.3368306E-3,4.62649E5,-4.6676336E-4,-1.0087519E-4,5.271134E-4,1.3766185E-5,-2.7070593E-3,3.0539522E-4],"split_indices":[0,0,0,0,0,0,0,0,0,0,0,0,0],"split_type":[0,0,0,0,0,0,0,0,0,0,0,0,0],"sum_hessian":[8E2,7.42E2,5.8E1,2.28E2,5.14E2,4E0,5.4E1,1.3E1,2.15E2,9E0,5.05E2,3E0,5.1E1],"tree_param":{"num_deleted":"0","num_feature":"1","num_nodes":"13","size_leaf_vector":"1"}},{"base_weights":[7.740957E-6,-6.290253E-4,8.9123065E-4,-4.527942E-4,-1.3038819E-2,7.1098405E-4,5.9385714E-3,-6.4356595E-5,7.735616E-4,-1.6204765E-3,-8.010184E-4,8.155458E-5,-8.995329E-4,3.8214464E-4,7.9007586E-4],"categories":[],"categories_nodes":[],"categories_segments":[],"categories_sizes":[],"default_left":[0,0,0,0,0,0,0,0,0,0,0,0,0,0,0],"id":81,"left_children":[1,3,5,7,9,11,13,-1,-1,-1,-1,-1,-1,-1,-1],"loss_changes":[4.5062276E-4,1.0150924E-3,3.0311543E-4,7.2028214E-4,3.8581085E-5,3.3300603E-4,3.2677082E-5,0E0,0E0,0E0,0E0,0E0,0E0,0E0,0E0],"parents":[2147483647,0,0,1,1,2,2,3,3,4,4,5,5,6,6],"right_children":[2,4,6,8,10,12,14,-1,-1,-1,-1,-1,-1,-1,-1],"split_conditions":[2.88039E5,2.84208E5,4.92389E5,2.762E5,2.85464E5,4.91246E5,4.94968E5,-6.4356595E-5,7.735616E-4,-1.6204765E-3,-8.010184E-4,8.155458E-5,-8.995329E-4,3.8214464E-4,7.9007586E-4],"split_indices":[0,0,0,0,0,0,0,0,0,0,0,0,0,0,0],"split_type":[0,0,0,0,0,0,0,0,0,0,0,0,0,0,0],"sum_hessian":[8E2,4.65E2,3.35E2,4.59E2,6E0,3.24E2,1.1E1,4.49E2,1E1,3E0,3E0,3.21E2,3E0,6E0,5E0],"tree_param":{"num_deleted":"0","num_feature":"1","num_nodes":"15","size_leaf_vector":"1"}},{"base_weights":[6.1246205E-6,-1.4154898E-4,3.3893015E-3,-1.2603893E-3,1.7543384E-4,2.597742E-3,7.1829016E-4,-6.7744026E-5,-1.5826849E-3,1.1012059E-3,5.6402996E-6,4.116743E-4,-6.56931E-5],"categories":[],"categories_nodes":[],"categories_segments":[],"categories_sizes":[],"default_left":[0,0,0,0,0,0,0,0,0,0,0,0,0],"id":82,"left_children":[1,3,5,7,9,11,-1,-1,-1,-1,-1,-1,-1],"loss_changes":[4.0017444E-4,2.723069E-4,9.126618E-5,1.4339492E-3,7.716903E-4,1.4225196E-4,0E0,0E0,0E0,0E0,0E0,0E0,0E0],"parents":[2147483647,0,0,1,1,2,2,3,3,4,4,5,5],"right_children":[2,4,6,8,10,12,-1,-1,-1,-1,-1,-1,-1],"split_conditions":[4.74135E5,1.04642E5,4.94968E5,1.01447E5,1.08524E5,4.91246E5,7.1829016E-4,-6.7744026E-5,-1.5826849E-3,1.1012059E-3,5.6402996E-6,4.116743E-4,-6.56931E-5],"split_indices":[0,0,0,0,0,0,0,0,0,0,0,0,0],"split_type":[0,0,0,0,0,0,0,0,0,0,0,0,0],"sum_hessian":[8E2,7.67E2,3.3E1,1.69E2,5.98E2,2.8E1,5E0,1.63E2,6E0,6E0,5.92E2,1.9E1,9E0],"tree_param":{"num_deleted":"0","num_feature":"1","num_nodes":"13","size_leaf_vector":"1"}},{"base_weights":[5.7978186E-6,-4.127135E-4,1.0291131E-3,-2.727422E-4,-1.2493867E-2,1.2381477E-2,3.8322137E-4,-3.9828992E-5,1.5339428E-3,-2.2976468E-3,-2.2642953E-5,6.696261E-5,2.3140907E-3,-1.8957902E-3,1.06175445E-4],"categories":[],"categories_nodes":[],"categories_segments":[],"categories_sizes":[],"default_left":[0,0,0,0,0,0,0,0,0,0,0,0,0,0,0],"id":83,"left_children":[1,3,5,7,9,11,13,-1,-1,-1,-1,-1,-1,-1,-1],"loss_changes":[3.430417E-4,9.596381E-4,1.7024099E-3,1.1055953E-3,8.3326397E-4,1.5674126E-3,2.903816E-3,0E0,0E0,0E0,0E0,0E0,0E0,0E0,0E0],"parents":[2147483647,0,0,1,1,2,2,3,3,4,4,5,5,6,6],"right_children":[2,4,6,8,10,12,14,-1,-1,-1,-1,-1,-1,-1,-1],"split_conditions":[3.46902E5,3.41001E5,3.5508E5,3.39172E5,3.45395E5,3.52104E5,3.62017E5,-3.9828992E-5,1.5339428E-3,-2.2976468E-3,-2.2642953E-5,6.696261E-5,2.3140907E-3,-1.8957902E-3,1.06175445E-4],"split_indices":[0,0,0,0,0,0,0,0,0,0,0,0,0,0,0],"split_type":[0,0,0,0,0,0,0,0,0,0,0,0,0,0,0],"sum_hessian":[8E2,5.68E2,2.32E2,5.62E2,6E0,1.2E1,2.2E2,5.58E2,4E0,3E0,3E0,6E0,6E0,7E0,2.13E2],"tree_param":{"num_deleted":"0","num_feature":"1","num_nodes":"15","size_leaf_vector":"1"}},{"base_weights":[5.0582403E-6,-9.6328666E-5,3.865056E-3,-2.916298E-3,1.44328305E-5,7.7613685E-3,1.9851553E-3,-6.503482E-4,-2.2260836E-4,-6.080288E-5,3.070913E-5,1.7352785E-4,1.2678691E-3,-8.2588196E-4,5.0165755E-4],"categories":[],"categories_nodes":[],"categories_segments":[],"categories_sizes":[],"default_left":[0,0,0,0,0,0,0,0,0,0,0,0,0,0,0],"id":84,"left_children":[1,3,5,7,9,11,13,-1,-1,-1,-1,-1,-1,-1,-1],"loss_changes":[3.134644E-4,2.4380558E-4,1.4245219E-4,6.580123E-5,1.369931E-4,1.8160907E-4,4.7099552E-4,0E0,0E0,0E0,0E0,0E0,0E0,0E0,0E0],"parents":[2147483647,0,0,1,1,2,2,3,3,4,4,5,5,6,6],"right_children":[2,4,6,8,10,12,14,-1,-1,-1,-1,-1,-1,-1,-1],"split_conditions":[4.87074E5,1.521E4,4.91246E5,2.251E3,1.57606E5,4.88283E5,4.92389E5,-6.503482E-4,-2.2260836E-4,-6.080288E-5,3.070913E-5,1.7352785E-4,1.2678691E-3,-8.2588196E-4,5.0165755E-4],"split_indices":[0,0,0,0,0,0,0,0,0,0,0,0,0,0,0],"split_type":[0,0,0,0,0,0,0,0,0,0,0,0,0,0,0],"sum_hessian":[8E2,7.8E2,2E1,2.9E1,7.51E2,6E0,1.4E1,4E0,2.5E1,2.4E2,5.11E2,3E0,3E0,3E0,1.1E1],"tree_param":{"num_deleted":"0","num_feature":"1","num_nodes":"15","size_leaf_vector":"1"}},{"base_weights":[4.7435756E-6,-2.1236781E-4,1.5009706E-3,-2.639464E-3,-1.0542445E-4,1.4531681E-3,1.0303314E-3,-5.925395E-4,-2.00784E-4,3.655627E-6,-1.3952686E-4,-5.893781E-4,1.5113212E-4],"categories":[],"categories_nodes":[],"categories_segments":[],"categories_sizes":[],"default_left":[0,0,0,0,0,0,0,0,0,0,0,0,0],"id":85,"left_children":[1,3,5,7,9,-1,11,-1,-1,-1,-1,-1,-1],"loss_changes":[2.6020015E-4,1.814244E-4,6.149893E-4,5.5277837E-5,1.2281617E-4,0E0,3.3250084E-4,0E0,0E0,0E0,0E0,0E0,0E0],"parents":[2147483647,0,0,1,1,2,2,3,3,4,4,6,6],"right_children":[2,4,6,8,10,-1,12,-1,-1,-1,-1,-1,-1],"split_conditions":[4.30326E5,1.521E4,4.31366E5,2.251E3,3.86745E5,1.4531681E-3,4.35146E5,-5.925395E-4,-2.00784E-4,3.655627E-6,-1.3952686E-4,-5.893781E-4,1.5113212E-4],"split_indices":[0,0,0,0,0,0,0,0,0,0,0,0,0],"split_type":[0,0,0,0,0,0,0,0,0,0,0,0,0],"sum_hessian":[8E2,6.99E2,1.01E2,2.9E1,6.7E2,3E0,9.8E1,4E0,2.5E1,6.04E2,6.6E1,6E0,9.2E1],"tree_param":{"num_deleted":"0","num_feature":"1","num_nodes":"13","size_leaf_vector":"1"}},{"base_weights":[4.3324744E-6,-7.694683E-5,3.6431993E-3,-1.0870799E-3,1.6309026E-4,1.1463165E-3,1.6299938E-3,-4.5826335E-5,-1.0395922E-3,1.5957697E-3,7.5282696E-6,-7.680076E-4,4.392624E-4],"categories":[],"categories_nodes":[],"categories_segments":[],"categories_sizes":[],"default_left":[0,0,0,0,0,0,0,0,0,0,0,0,0],"id":86,"left_children":[1,3,5,7,9,-1,11,-1,-1,-1,-1,-1,-1],"loss_changes":[2.3689972E-4,1.900634E-4,2.6616358E-4,8.785779E-4,8.7799155E-4,0E0,3.8981187E-4,0E0,0E0,0E0,0E0,0E0,0E0],"parents":[2147483647,0,0,1,1,2,2,3,3,4,4,6,6],"right_children":[2,4,6,8,10,-1,12,-1,-1,-1,-1,-1,-1],"split_conditions":[4.88283E5,9.2154E4,4.91246E5,8.8607E4,9.682E4,1.1463165E-3,4.92389E5,-4.5826335E-5,-1.0395922E-3,1.5957697E-3,7.5282696E-6,-7.680076E-4,4.392624E-4],"split_indices":[0,0,0,0,0,0,0,0,0,0,0,0,0],"split_type":[0,0,0,0,0,0,0,0,0,0,0,0,0],"sum_hessian":[8E2,7.83E2,1.7E1,1.5E2,6.33E2,3E0,1.4E1,1.41E2,9E0,3E0,6.3E2,3E0,1.1E1],"tree_param":{"num_deleted":"0","num_feature":"1","num_nodes":"13","size_leaf_vector":"1"}},{"base_weights":[4.670177E-6,-4.3474932E-4,6.143496E-4,-2.716891E-4,-1.1928411E-2,5.272313E-3,4.7787846E-4,-4.4104505E-5,6.991296E-4,-1.4822483E-3,-7.330281E-4,1.9757565E-4,1.0641302E-3,-1.3312952E-3,6.263452E-5],"categories":[],"categories_nodes":[],"categories_segments":[],"categories_sizes":[],"default_left":[0,0,0,0,0,0,0,0,0,0,0,0,0,0,0],"id":87,"left_children":[1,3,5,7,9,11,13,-1,-1,-1,-1,-1,-1,-1,-1],"loss_changes":[2.1459154E-4,8.7080075E-4,2.1201007E-4,5.6674035E-4,3.2171083E-5,1.576299E-4,6.726712E-4,0E0,0E0,0E0,0E0,0E0,0E0,0E0,0E0],"parents":[2147483647,0,0,1,1,2,2,3,3,4,4,5,5,6,6],"right_children":[2,4,6,8,10,12,14,-1,-1,-1,-1,-1,-1,-1,-1],"split_conditions":[2.88039E5,2.84208E5,2.96719E5,2.762E5,2.85464E5,2.89764E5,2.98253E5,-4.4104505E-5,6.991296E-4,-1.4822483E-3,-7.330281E-4,